426 150
Indie 0.08597856 0.0058165267 0.032403268 0.055892233 -0.058784813 0.077475 -0.01126027 0.24372727 -0.1291309 -0.078159615 0.100133285 -0.14323005 -0.21106462 0.49138838 -0.1282963 -0.098450564 -0.07327744 0.058995318 0.039531827 -0.28487304 0.04354969 0.083511986 0.13468854 0.014514515 0.22315137 0.17184074 -0.38885036 0.13399936 -0.15772533 0.04188502 -0.041551806 -0.11764214 -0.09126549 -0.10938551 -0.23925547 -0.061398152 0.10398083 -0.1908035 0.17399564 -0.21680588 0.056092612 -0.016635628 0.12814778 -0.08986881 -0.069024354 0.3389363 -0.020503318 0.09826186 -0.15691143 -0.017904289 -0.34153503 0.1474453 -0.15124632 0.13418448 0.12873232 -0.067506544 0.036924757 -0.03623138 -0.13802649 0.15348125 -0.005559481 -0.13657923 0.08632459 0.010785653 0.10193933 0.106912434 0.00288633 -0.060976394 -0.22525859 -0.12431686 0.10627339 0.06684499 0.10997473 -0.3516904 0.071482174 0.122062884 0.11690442 0.046290673 0.122656904 0.032398924 0.08054591 -0.12418197 0.081320025 0.50707513 -0.15943117 0.01432817 0.28588185 -0.074776515 -0.05838989 0.054592524 0.010198989 -0.12538785 0.028394813 -0.033802334 0.15170178 0.1278254 -0.032122675 -0.19394879 -0.112792715 0.23509093 -0.13525948 0.40882716 0.13290614 0.08323162 0.087995574 -0.16672593 0.22336812 0.22728743 -0.30150998 -0.2078182 -0.14392239 -0.3346258 -0.080920175 0.13054764 0.08662983 0.10068676 0.30692503 0.26840648 -0.3758103 -0.11594793 0.09407452 0.18610854 -0.019677317 -0.12351194 -0.029194461 0.047817517 0.09472628 -0.17054886 -0.06846156 0.34190267 0.11586761 -0.04316048 0.054065816 -0.17465176 0.19263831 0.29660782 -0.17451684 0.028029058 0.20945531 0.17035933 0.17273377 -0.020315664 -0.039379347 -0.10775306 0.09247709 0.2673458 -0.007515547 -0.11903596 0.055512086 0.13247642
Action 0.15954703 -0.17941086 0.04859841 0.14542496 -0.011096266 0.2121813 0.012662024 0.4680222 0.099707924 0.3238154 -0.16647562 -0.026883092 -0.02978204 0.31769407 -0.026789937 0.06522883 0.19905405 0.03023328 0.22412533 0.24841194 -0.2959053 -0.0776322 0.24767432 0.13048011 -0.05757929 0.17610882 -0.12780045 -0.08422506 0.075914964 0.075590484 -0.12219185 -0.04390317 0.2384683 -0.21013619 -0.10125628 -0.058946025 0.008610791 -0.15495218 0.15474136 -0.2917266 -0.074321836 -0.19802001 0.118742466 -0.072765306 0.16932444 0.043120816 0.18655269 -0.015887018 0.0064695603 0.16351458 -0.045891136 0.085314885 -0.08262346 -0.19972618 0.108815834 0.10799097 -0.163503 0.06959706 -0.09269072 0.04651431 -0.13065755 -0.26566938 0.19745754 -0.017519841 0.28633022 -0.029600887 0.101671934 0.05915881 -0.11876125 -0.019954497 0.06682362 -0.22258258 0.040582202 -0.23645121 0.1107876 -0.17390613 -0.045026988 0.23227637 0.05565315 0.09841514 0.1653403 -0.22677907 -0.21770918 0.068884306 0.09856694 -0.15967086 0.09411363 0.009728536 0.11278742 -0.05673471 -0.09705962 -0.11421105 0.09385515 -0.017251879 0.40711278 0.056338865 0.094895765 -0.10582278 -0.22520037 0.07621473 0.12013222 0.21482156 -0.10300586 -0.18878236 -0.1814495 0.044311978 -0.012151979 0.08163383 -0.054536805 -0.065614656 -0.042753078 -0.035085477 0.31069776 0.17699912 -0.032495447 0.12823033 0.35136878 0.1535791 -0.1580636 0.1284627 0.052203488 0.03535214 0.04298425 0.06786407 -0.13059005 0.23600082 0.33306566 -0.14122044 -0.16340604 0.35375342 -0.10200784 -0.18380192 -0.10456915 -0.20051214 0.21008469 -0.17684409 -0.22935373 -0.123121805 0.26383582 -0.035162024 -0.016586423 0.13450128 0.28995574 0.0016789596 0.22527294 0.22214396 0.23746791 0.013332103 0.19689023 -0.11982752
Adventure -0.2404413 -0.06303423 0.032420177 0.16247402 0.0058371406 -0.18765217 0.020165326 0.30490437 0.1333727 -0.04428564 0.37107533 -0.18948974 0.19688945 0.2851406 0.042329125 -0.19044358 -0.03698433 -0.031140849 -0.04061174 0.08684602 0.02571493 -0.067052275 0.39570013 0.085831285 0.039228983 0.11691039 0.013174754 0.19911177 -0.10175403 -0.008146562 0.22001609 -0.0070907194 0.021715255 -0.18582417 -0.09517167 0.19484803 0.29110852 -0.13385978 -0.14533116 -0.09157092 0.093294 -0.026945313 0.07300283 0.14080574 0.25837004 0.15985721 0.08955602 -0.16541244 0.19695525 0.007688336 0.089646876 0.20338511 -0.18581888 -0.09904066 0.027017357 0.051276527 -0.018448604 0.18311429 -0.13750705 -0.09182023 0.083771884 -0.07042972 0.30160365 -0.036241442 0.15192585 0.031780373 0.026174953 0.023054872 -0.097437575 -0.3106672 0.17764762 0.08893095 0.11903853 0.059932783 -0.032104373 -0.21144584 -0.19416463 0.14431737 -0.086385556 -0.007961969 -0.008072589 -0.12323533 -0.022279667 0.22620106 0.0083946325 -0.2769236 0.279575 0.054435603 0.07681073 -0.16275792 -0.15557049 -0.039800033 0.0356359 -0.009707134 0.40423283 0.046743333 0.01426961 -0.079663664 0.06779642 0.032978863 -0.057315737 0.3541332 0.036349475 -0.017054515 0.1311612 0.12555665 0.1454487 0.2548746 -0.2271081 0.107266076 -0.21336183 -0.19104865 0.21689649 0.1508728 -0.06496969 0.004955976 0.14152467 0.049302276 -0.11483445 -0.24923085 0.08912089 0.09753879 0.018552653 0.22979946 -0.02457903 0.23379083 0.0060344394 0.10998131 -0.22031544 0.3030959 -0.13679694 0.11723269 -0.038671475 -0.49100956 0.13076696 0.19085024 -0.12319039 -0.056485 0.048222937 0.05696729 0.2501819 -0.220038 -0.21324417 0.12463794 0.18829562 0.19432643 -0.058402684 -0.20482877 0.18092066 -0.4232158
Casual 0.26865426 -0.10050138 0.21155444 -0.24742508 -0.008079806 -0.134409 0.030126179 -0.009416253 -0.10126811 -0.20695627 0.029352332 -0.26366293 0.1755818 0.30678684 -0.17999466 -0.120012276 0.0026524854 0.26032376 -0.23631088 -0.010167685 -0.087574504 0.056894276 0.24754906 0.2911552 0.15772863 0.10911344 -0.20276424 0.088821165 -0.132677 -0.14594795 -0.19679822 -0.1738289 0.0038733354 -0.04783931 -0.22266701 -0.027857028 0.4481255 -0.12757221 0.044397455 -0.20351867 0.16772752 -0.02751456 0.058394052 -0.29346493 0.28219715 -0.14508462 -0.0114548085 0.11723182 0.24296348 0.13704132 -0.44290093 0.08510656 -0.23986876 -0.017844887 -0.107007414 0.061947674 -0.061446287 -0.07590699 0.17489052 -0.08011199 -0.06887086 -0.15564677 0.09960844 -0.085077666 0.029802708 0.007443045 -0.17906426 -0.31833312 -0.2952822 -0.011378164 0.045179214 0.26139796 0.28819475 0.037587915 0.07896245 -0.08765135 0.051393274 -0.17236467 0.062087007 0.012226625 0.069762945 -0.3867432 -0.28581566 0.10196561 0.20791554 -0.18151043 0.3248401 0.19001237 0.2627208 0.0786913 0.3067755 -0.25304624 -0.0897708 -0.106217846 0.12743162 0.017918069 0.06596455 -0.22143373 0.035837926 0.21661572 0.23123248 0.0885713 0.25669137 0.15733239 -0.09550768 -0.16532211 0.032647762 0.0685511 -0.2823355 -0.08562093 0.080663644 -0.2681497 0.1381144 -0.19710375 0.10159567 0.12515497 0.12181838 0.15082932 -0.25710982 -0.24389042 0.105355315 0.16943118 0.17551574 -0.046315875 -0.21142577 0.25568375 -0.15687476 0.096161254 -0.13045217 0.38483366 0.047330353 -0.1534046 0.19023967 -0.14426005 0.15585223 -0.18071705 -0.11761533 0.26392376 0.124179386 -0.07819268 0.3166028 0.16703832 -0.2262813 0.2447185 0.15309177 0.090474606 0.05774503 -0.17659645 -0.012156969 -0.12938575
Singleplayer 0.20640033 0.0021120624 -0.05161391 -0.017382374 0.16543053 0.068186104 -0.10514938 0.17539895 -0.11714811 0.13489394 0.00032045276 -0.11738023 0.17955337 0.43893942 0.03566072 0.16149925 0.09320708 0.06017836 0.087880276 -0.22164601 -0.203267 -0.04975935 0.27742168 0.20175451 0.11930463 0.11095802 -0.13705954 -0.053638086 0.21280332 -0.103982545 0.20143862 0.10822291 -0.02670415 0.009895534 -0.30070305 0.18235905 -0.055477954 -0.19684547 0.10814759 -0.06537673 0.14070223 -0.02246731 0.095365256 -0.08712721 0.16570194 0.2228765 -0.18440363 -0.15386355 0.11088826 -0.037462205 -0.012931641 -0.006358556 -0.10277912 0.012061896 0.045448624 -0.059349857 -0.15122284 0.024358818 0.024235835 -0.036894206 0.1613286 -0.22259362 0.17781433 0.07672118 0.14229834 0.04612372 -0.14717782 -0.26882285 -0.2161781 -0.17542611 0.090880305 0.24703422 0.08880756 0.06656178 0.12095442 -0.044247583 -0.15772457 0.16713157 0.1308686 0.071159996 0.1853284 -0.36116925 -0.10338568 0.1501506 0.05323188 -0.2555929 0.24108528 -0.14951015 -0.0066008056 -0.06186077 -0.033038557 0.20360039 -0.09492766 0.036006153 0.01694948 0.10825834 0.2782096 -0.10190997 0.16316181 -0.016978048 0.13039692 0.14289339 0.25037253 0.060953386 0.005442949 -0.05314197 0.17963836 0.16955215 -0.054122765 -0.050697442 0.010794515 -0.05538945 0.0582724 0.013948475 -0.17578924 0.054293644 0.15372652 0.21427181 -0.2874105 -0.18544914 0.0220392 0.29301715 0.034668516 -0.096085444 -0.27503285 -0.059293907 0.090382665 -0.18147923 -0.19099501 0.15763815 -0.15645836 -0.05125948 0.13795592 -0.23700841 -0.026109237 0.14872754 -0.2094915 -0.14577231 -0.06997528 0.044048306 0.109749354 -0.0322954 -0.0560483 0.041869715 0.3053048 0.042583413 -0.1491932 -0.06470242 0.1372748 -0.017631175
Simulation -0.26752073 -0.08696557 0.08997203 -0.13616942 0.08244628 0.16292502 -0.011968326 0.0062816082 0.13875918 -0.013206033 0.26533625 -0.023369344 0.0049573747 0.41589224 -0.16244972 0.06026763 -0.24090624 0.20805861 0.0065977653 -0.20888223 -0.023362335 0.105754234 0.26003894 0.0003096583 0.06590863 0.02839822 0.03457613 -0.15748516 0.17055845 -0.09194468 -0.36805174 0.008595456 -0.090756185 -0.10454649 -0.3519202 -0.07940989 -0.045792557 -0.0526563 0.20070261 -0.35780758 0.041406505 -0.18486565 -0.38715592 0.013011601 0.1982172 -0.09081889 0.07234447 -0.23690651 0.011405242 0.17070818 -0.12027533 0.35546467 -0.07110198 0.1930304 0.1380502 0.037554573 -0.09639799 0.1061885 -0.21178955 0.06205392 0.17811276 -0.2978476 0.3326353 0.20020232 0.2803613 0.1672309 -0.09335557 -0.20337127 -0.44714776 0.06705996 0.14845958 0.37669 0.11692699 -0.26749983 0.13031203 0.2133103 -0.19920382 -0.3813302 0.16776112 0.011892951 0.31152004 -0.42874914 -0.30907536 0.23407735 -0.027635349 -0.11022178 0.33585846 0.18324654 0.13685809 -0.004881938 0.01878201 -0.010539891 0.15241502 -0.09939519 -0.050935607 0.21627718 -0.033739664 0.0708547 -0.11124898 -0.06565243 -0.04059629 0.13870631 0.05413455 -0.07162731 -0.22433622 -0.2144156 -0.08158305 -0.06332214 0.065428145 -0.014548224 -0.2700549 -0.0153564615 -0.031162256 -0.02115692 -0.18849057 0.025657905 -0.024632448 -0.037612796 -0.4500292 -0.0903187 -0.37269184 0.14774075 0.40084395 0.074219055 -0.1499278 -0.18010665 -0.1936233 0.030953342 -0.2735642 0.15422912 -0.23929049 -0.39290303 0.19475739 -0.1861092 0.23043583 0.18974936 -0.17394766 0.0025146466 -0.00941794 0.06458583 0.006580288 0.0019061323 0.062261134 0.11804679 -0.08453309 0.372446 -0.07612686 -0.06762167 0.08295354 -0.09775135
Strategy 0.11305314 -0.34252077 -0.18810368 0.23123486 0.07015759 -0.10098339 0.16120133 0.528954 0.15517116 -0.12149553 0.072342426 -0.066914916 -0.018171152 0.3976269 -0.038871236 -0.035748757 0.019299652 -0.20770796 0.31405336 -0.0886491 0.12749547 0.058405668 0.12163245 0.2569527 0.32951936 -0.12036201 -0.33913326 -0.008500406 -0.04135646 -0.03971168 0.17943282 0.10900136 0.053175587 0.0858604 -0.29621896 0.19097719 0.17069013 0.08598837 0.24376741 -0.342628 0.16033514 -0.07759882 -0.32262254 -0.08408705 -0.04154634 0.19006853 0.20321429 -0.037477918 0.13878305 0.19590935 0.116330415 0.37815282 -0.02291928 0.09533454 0.06532047 0.015690405 -0.41006565 0.23932175 0.042688362 -0.10500649 0.06279845 -0.007951931 0.33443627 0.17193927 -0.05831101 -0.12706918 0.04149582 -0.3387924 -0.09817638 -0.16788508 0.18864514 0.23213898 -0.002235079 -0.3040043 0.16946973 -0.052417286 0.0005197847 0.0012230228 0.3475744 -0.01422683 -0.029755492 -0.16506661 0.05919967 0.34735096 -0.070688084 -0.42170182 0.11978426 0.06595642 0.26488575 0.11346873 -0.08484439 0.12922679 0.21814889 0.25344887 0.269329 0.030350236 -0.015361446 0.05743356 0.3095618 0.09491554 0.04220957 0.06292384 0.0029588493 -0.10793767 -0.2899936 -0.2688826 -0.15340479 -0.01152743 -0.13723348 -0.20452024 0.078217626 0.05883269 0.035396907 -0.17750782 0.036690865 0.12323936 0.044662733 0.06645481 -0.17618164 -0.29535967 -0.04860484 0.060048625 0.10526608 0.06562365 -0.22514838 -0.08519002 -0.27974457 -0.07691858 0.027840937 0.12631035 -0.32151473 -0.10130424 0.21846855 0.19520494 0.3654558 0.2849399 -0.18824343 -0.15119301 0.08308392 -0.031107867 -0.06246791 -0.0034495983 0.057532825 0.23591812 0.046196736 -0.036809444 -0.09830752 -0.18338156 -0.18995965 -0.014390938
RPG -0.27055788 -0.13332202 -0.22022106 0.1328976 0.31977153 -0.17896459 -0.070078366 0.23101614 0.25374582 0.14655834 -0.28403544 -0.3078181 -0.052994303 0.31780463 -0.012412841 -0.15255558 -0.1525371 -0.25739428 0.22466949 0.11229048 0.2897797 0.3960403 0.070633784 0.2698759 0.02048173 0.25419074 0.071588874 0.019561557 -0.058790516 0.041308302 0.16601995 -0.020345014 0.07765818 0.116081096 -0.3423966 0.10873319 0.124916136 0.23190017 -0.085407674 -0.16232413 0.032849155 0.124933325 -0.112784944 -0.18925516 0.024620645 -0.04041278 0.012848072 -0.16463257 0.21865404 -0.021746052 0.19586284 0.31161872 0.0003576436 -0.30760643 0.365792 -0.08945072 -0.1289614 0.21193627 0.011039235 0.020582221 -0.069995224 -0.11887987 0.074578635 -0.24925528 0.101325706 0.05707906 -0.16091539 -0.4291844 -0.1313071 -0.1900798 0.07027756 -0.36278585 -0.076954186 -0.34645134 -0.26047197 -0.07781769 -0.18943004 0.24458179 0.07829616 -0.06299761 0.11597059 -0.17605262 -0.36640558 0.26386604 0.04136214 0.0035731758 0.17787722 -0.062918425 -0.049166124 -0.18256992 -0.22742033 -0.22264512 0.08477524 -0.014570056 0.16758765 0.25066948 0.38858065 -0.080500655 0.009581293 0.213974 0.16236071 0.26666927 0.14954592 0.13054246 -0.23038526 -0.27558202 0.25186816 0.07139243 -0.0069596367 -0.18641762 -0.04308224 -0.18302985 0.16520052 -0.07322942 -0.21309537 0.35410315 0.3129191 0.24617495 -0.38237754 -0.14237937 0.09253279 0.3349932 0.11405395 -0.013391797 -0.024380654 0.060355905 -0.07028372 0.12631018 -0.07714826 0.09784173 0.10607793 0.066881314 -0.113335505 -0.24033125 0.24086164 0.31741646 -0.17681304 -0.059791006 0.12319614 0.11424489 -0.033737425 -0.061068576 -0.2160855 0.11903198 0.47633326 -0.07120947 -0.023143675 -0.2639017 -0.20201549 -0.017329734
Early Access 0.058978077 -0.3217776 -0.1433524 -0.057717748 0.213111 0.15614541 -0.019040253 0.20985094 0.15922843 -0.12809186 -0.057546604 0.03641152 -0.24546914 0.07918071 0.034047954 -0.14007588 0.09687812 -0.09551471 0.18773563 -0.02939835 -0.07423607 0.15844102 0.31296358 0.14256102 0.18637961 0.122152135 -0.2318892 -0.057347037 0.06354549 0.028268103 -0.017920433 -0.050406557 0.07108826 0.028075414 -0.32697096 -0.1688632 -0.2860605 -0.15427266 0.063406065 -0.40395772 0.037763186 -0.24683234 -0.011770073 -0.05392847 -0.054533508 -0.14928181 0.034467362 -0.11904943 -0.11382003 0.10962798 0.03159625 0.31444702 0.09869615 -0.28812444 0.061172165 0.06058122 -0.14345214 0.30791205 0.14698714 -0.050150517 -0.057691246 -0.182292 0.07752597 0.21866228 0.23763779 0.15635067 0.101771414 -0.17099655 -0.08636075 -0.10455873 0.12431574 0.012282852 0.15709311 -0.18395673 0.021124294 -0.102804534 -0.059689015 0.037961055 0.19530118 -0.030491658 0.08755531 0.034189876 -0.21070725 0.48273024 -0.00024782316 -0.14177126 0.21707113 -0.034342736 -0.027739603 -0.04148095 -0.005706954 -0.1377449 0.032107085 -0.06988034 0.15094908 0.122824185 0.06023369 -0.07728113 -0.08177347 0.3148407 -0.043359704 0.24824709 -0.09634609 0.011771462 -0.40388438 -0.111891605 0.061536226 0.09014946 -0.19000094 -0.24383716 0.037751645 0.08364915 -0.08411037 -0.041891057 0.021050446 0.25777602 0.3839312 0.05130809 -0.15185876 -0.08481933 0.02624663 -0.035417244 0.113407984 0.0105563365 -0.080749884 -0.0018291853 -0.09890876 -0.14488672 -0.048284456 0.24128865 -0.12616111 -0.14668588 0.27100036 -0.16628827 0.202081 0.052336503 -0.24294366 0.021346059 0.06561603 0.024662575 0.076985955 -0.09071615 -0.074165106 0.1508708 -0.22973028 0.18262556 -0.09642569 -0.012646046 0.098984286 -0.100984804
Multiplayer 0.098724395 0.023323564 -0.13569131 -0.0023606326 -0.01915979 0.08468973 -0.11426074 0.20993875 0.17751664 0.28340262 0.07314072 -0.08019522 -0.0996354 0.38055855 -0.00026857088 -0.022071548 0.07487772 -0.13185127 0.3173347 0.109702036 -0.2900669 -0.033339404 0.17105378 0.14477354 0.29398605 0.25538322 -0.15543748 0.050537746 -0.05200496 0.03761775 -0.0051656566 -0.17951897 0.2806055 0.033741385 -0.03161019 0.08470377 -0.02832902 0.23333654 -0.03859097 -0.40378946 0.13462278 -0.10557602 -0.014331811 -0.004516728 -0.12951042 -0.0022104224 0.20593119 -0.10855488 -0.1767414 0.124993004 0.27735674 0.10469491 -0.072235435 -0.34335253 0.08653233 0.10275808 0.100019574 0.09152935 0.05561039 -0.12543374 0.26098177 -0.4203213 0.026291272 0.047536064 0.06931124 0.17691731 0.35641745 -0.30384785 -0.07841272 -0.14724359 0.23638834 0.00422765 0.041919265 0.021257605 0.22324093 -0.026786027 0.01390606 -0.035332523 0.44958997 -0.09863984 0.111117125 0.0604072 -0.015900377 -0.04334604 0.12727065 -0.36380175 0.3199319 -0.008296609 0.10252465 0.17098936 0.07414336 0.13722622 0.2119471 0.042927183 0.18250819 0.34225687 -0.20742117 0.054693047 -0.04051408 0.073793195 0.044093046 0.30744806 -0.05109048 -0.22019634 -0.23832017 -0.09123033 0.17956121 0.27945846 0.20649852 0.046796557 0.13146883 -0.11704465 0.10282418 0.2701739 -0.001130486 0.009681683 0.167291 -0.043540347 -0.27191192 -0.19668457 -0.10017115 0.12406269 0.21057461 0.0057277028 -0.24401563 -0.2547339 0.10998901 -0.05031207 0.06941809 0.33435562 -0.3470741 -0.10670243 0.137985 -0.13096115 0.2063553 0.038567252 -0.046963103 -0.00058532617 0.04407442 -0.17710425 0.09689294 -0.048825026 0.20995815 0.43823358 0.0068185804 0.124951504 0.053746004 -0.018424971 -0.07255528 0.057675507
Great Soundtrack -0.055618785 -0.022781141 0.035799377 0.10171463 -0.048001207 0.04452042 0.050021593 0.41776165 0.036489516 0.12982301 0.024706583 -0.10865825 -0.05873101 0.4335761 -0.13863212 0.100190006 -0.007982404 -0.011760853 0.06858796 0.01611699 -0.108811766 0.14482252 0.19575153 0.22640006 0.033986434 0.039646357 -0.19606514 0.016846484 -0.040656615 -0.26536092 0.085355096 -0.14887999 0.07557462 0.11871906 -0.27276832 0.24703448 0.243704 -0.12475281 -0.02336884 -0.13064498 0.15588787 -0.06519785 -0.22801442 0.04541191 0.063342504 0.39375117 0.15180606 -0.16610847 0.03157649 -0.074840225 -0.15763381 0.03615277 0.03361326 0.05906984 0.05591989 0.38334477 -0.049575195 -0.04196974 -0.058655825 0.00054588134 0.031327724 -0.04924183 0.115831606 0.046054754 0.13955103 0.090389155 -0.19833 0.047998216 -0.17949507 -0.050663196 -0.11228255 0.057454742 0.060187068 -0.062197186 0.25872138 0.076112665 0.00149541 -0.1301953 -0.08528002 0.025768304 0.0742512 -0.24107927 -0.01256063 0.10473673 0.11969517 -0.10552777 0.059711747 -0.0989894 0.02850718 0.098995484 0.0629389 0.0374676 -0.22768319 0.04436045 0.08984314 0.21101373 0.16146551 -0.16192046 0.1692791 0.1967643 0.08663894 0.10331085 0.08154412 -0.1701737 0.01507515 -0.1328283 0.075240806 0.2482002 -0.19030783 -0.008767892 -0.03953088 -0.26321784 0.0021834145 0.15160911 -0.2313414 0.21624485 0.13427053 0.21727574 -0.18047808 0.01641896 0.19549125 0.04955751 0.08483729 0.03786293 -0.14849243 0.18142597 0.2695154 -0.29239362 -0.08123305 0.3518562 -0.21837449 -0.105250366 0.021882638 -0.22252943 0.115322396 0.004045893 -0.11397526 -0.03824444 -0.061047174 -0.04131416 0.09362566 -0.036664464 -0.11163001 0.09454377 0.36467406 0.18515952 -0.06590419 -0.07003417 -0.0010887347 0.015367882
Atmospheric 0.1332512 -0.34477878 -0.010919175 -0.1743112 0.041622277 0.01059524 0.114072494 0.28049675 -0.023228912 0.10944248 0.2998201 0.042396065 0.09887759 0.75349486 -0.14799342 0.26109695 -0.048026673 0.2635337 0.15856229 0.25285748 0.00563596 0.18139213 0.28378704 0.23403922 0.24315608 -0.11530783 0.028262377 -0.31629863 0.091138214 -0.035418324 0.11100249 -0.23685943 -0.22225727 0.00814778 -0.22688775 0.27979794 -0.14982584 -0.15661204 -0.21071328 -0.29359517 0.056588873 0.06478727 0.16889676 0.08328011 0.056773514 0.2624458 -0.18210468 0.01043045 -0.11296855 0.13565129 0.035770446 0.101979874 -0.13125756 0.031788103 0.015160875 0.07975021 0.042610075 -0.054948416 0.038132437 -0.25680658 0.10189411 -0.09401753 0.15163474 0.24409252 0.09762031 -0.015828608 -0.30268487 -0.28599256 -0.25946155 -0.24070302 0.12800786 0.2305268 -0.08587218 -0.16154115 -0.029054243 -0.1222627 -0.04089586 -0.024629712 0.1361465 -0.031090753 0.17162368 -0.16248745 -0.12894143 -0.039970484 0.047604583 0.007228939 -0.092274085 0.17404254 0.15540749 -0.033911746 0.06269819 -0.12817957 -0.04472822 0.21033397 0.18093753 0.04162244 0.0051483954 -0.13855445 0.13962553 -0.03810584 0.19692536 0.33027408 0.20942992 -0.21273257 0.25109437 -0.11008391 0.04175874 0.2867791 -0.019972308 0.110609196 -0.24874415 -0.29539096 0.05192984 -0.008465469 -0.001258708 0.16261812 0.120252125 0.13528296 0.06465498 -0.19545852 0.16146262 -0.05024001 0.09779804 -0.0041054427 -0.11314349 0.079855815 0.27912033 -0.0018939667 0.099058405 0.07311265 -0.100774154 0.27806047 -0.031581767 -0.049556796 0.23644944 0.16394317 0.06302332 -0.27882236 0.21556984 0.014157746 0.22052862 -0.11282492 0.17386925 -0.038918126 0.13088149 0.11832089 0.049004827 0.041641206 0.019216489 -0.38951364
2D 0.24610394 -0.27978435 -0.03366823 0.13357039 0.19686101 -0.17239408 -0.016666967 0.19011128 -0.06256118 -0.27357137 -0.06920368 -0.16945925 -0.044899642 0.548158 -0.109935075 -0.08427921 -0.012018729 0.09646376 -0.06527304 0.21626858 0.16428469 -0.114965856 0.25837928 0.11369974 0.29562154 0.07265886 -0.3090837 0.20937368 0.013390792 0.023880878 0.3258866 -0.08137929 -0.13838275 -0.027117018 0.026124012 0.10580262 0.32095826 0.1540072 0.062086746 -0.29245758 -0.06301654 0.011339569 0.09626542 0.08766946 0.018848678 0.26069018 0.13110392 -0.012521012 0.27310875 -0.19414046 -0.03022899 -0.10438503 -0.03062841 0.08708404 -0.024971094 0.32793245 -0.14734149 -0.041297227 -0.05821377 0.008049538 -0.02359812 0.04575667 0.17394008 0.13400054 -0.030590368 0.23606364 -0.14253354 0.096310556 -0.17694457 -0.08463713 0.16059458 -0.030344648 0.1818929 -0.31979907 0.24480058 0.057522543 -0.07869938 0.06704155 -0.29549652 -0.17444462 -0.09585844 -0.065793745 -0.021164108 0.403456 0.08782314 -0.111164354 0.05028603 0.09474418 0.15484011 -0.33844203 0.19237171 -0.061475236 0.03876708 0.17954849 0.22741507 0.040895056 0.14436845 -0.22698951 -0.08776452 0.26082492 0.01679916 0.08518267 0.16975112 0.12852643 -0.21006608 0.07741576 0.22738564 0.032946035 -0.17280415 -0.35536125 0.097747795 -0.21488221 0.2599122 -0.027045045 -0.30381444 0.27257177 0.21595669 0.11266218 -0.24858092 0.0207869 -0.2681712 0.28391767 0.16366546 -0.09600696 -0.1856511 0.36480886 0.18872938 -0.12087249 -0.028217278 0.31381842 0.25931782 -0.19781442 0.015731756 -0.15647142 -0.069985874 0.3070941 -0.17571835 -0.22604801 0.040848274 0.14670548 0.21899322 0.18523534 0.046064384 0.094729796 0.27801242 0.23193373 -0.15826036 -0.24483837 0.14461462 -0.19069293
Puzzle 0.015079904 -0.05288011 -0.18168993 -0.13292658 -0.005444417 0.2864348 0.17763321 0.2388666 0.06129641 -0.05154107 0.022850286 -0.2671938 -0.030149462 0.27255926 0.0074642855 0.05307135 -0.29536623 0.19305113 -0.13236532 0.058664914 -0.20824304 -0.33599502 0.44645914 0.10247193 0.22224666 -0.1587347 -0.0407021 0.033544436 -0.021347282 -0.16946553 -0.055446673 -0.016102958 0.05863581 -0.10661932 0.27920875 0.11480126 0.432487 -0.24302721 -0.23140663 -0.14308749 0.1239244 -0.033662733 0.08636324 0.15716344 0.07293856 -0.07319597 -0.10222925 0.02274614 0.24951804 -0.0009784888 -0.1438884 0.13174365 -0.014721179 0.065506056 0.02963525 0.06971489 0.14861012 -0.07842511 0.16761267 -0.16466655 -0.070644125 -0.32487828 0.17342588 0.07201329 -0.0037376282 0.19974181 -0.050040938 -0.3724639 -0.24497755 -0.17619376 -0.03867196 0.09728692 -0.032621488 -0.005121519 -0.014152338 0.027959917 0.22729348 -0.103508145 -0.07590524 0.009244683 0.2167139 -0.44881168 0.07781129 0.17475653 -0.11366119 0.077548414 0.28920138 0.2832479 0.09672046 -0.27897203 0.2804582 -0.106147535 -0.18249243 0.16241845 0.28656313 -0.023839837 -0.17835207 -0.29546073 -0.03763318 0.20351394 0.17716411 0.110686235 0.21113116 -0.050225794 -0.053997517 -0.043500245 0.2995333 0.12616338 -0.32201573 -0.30070126 -0.0769854 -0.16350463 0.4633749 0.01462631 -0.42451957 0.15544242 0.2647003 0.21209206 -0.031898644 -0.20357239 0.18303977 -0.06406072 0.026872488 -0.20889734 -0.00063539477 0.25191194 0.07822368 0.028631866 -0.38628134 0.064383626 -0.1460809 0.12599823 -0.2954399 -0.10026648 -0.0037699258 0.30085096 0.21023823 -0.059757706 0.045881175 0.16265266 0.18911351 -0.016595764 0.15780427 0.27180424 0.42823637 0.030479891 -0.048287984 -0.12702703 0.14416932 -0.243189
Story Rich -0.27141264 -0.05512676 0.31369284 0.00895314 -0.27598265 -0.061794266 0.095167056 0.05433086 0.16359201 0.12095199 0.18230063 -0.113823324 0.108205065 0.28689358 -0.16801536 -0.017150706 0.126647 -0.05596419 -0.020640928 0.15576646 -0.19854687 -0.024080846 0.042507734 0.054344974 0.06738676 0.04425212 -0.14438522 -0.11320533 0.020903029 -0.04235224 0.35882282 0.0072082793 -0.13195477 -0.13036872 -0.10388322 -0.15432611 0.27169093 -0.06927416 0.05857501 -0.13119839 -0.14005746 0.1263408 -0.028792208 -0.059476253 0.2969251 0.13839059 0.08471664 0.052282557 -0.033538714 0.067733735 0.12796569 0.11941374 -0.33123985 -0.062129505 -0.02860928 0.040234197 0.023610767 0.013385656 -0.24070638 -0.3414592 0.10428267 -0.10545341 0.17377682 0.0999601 0.011001649 0.010364991 -0.095019385 -0.30295643 -0.31236058 -0.15315893 0.008084706 0.008568159 -0.15991299 -0.10443621 0.24756175 0.032449502 -0.1451645 0.1021889 0.1841924 0.27094683 0.23633589 -0.41155234 -0.2184595 0.3954307 -0.016280722 -0.11473941 0.11576985 -0.17603491 -0.03567275 0.0062121004 0.051530454 -0.020825014 -0.046330653 0.04604533 0.13527499 0.19529359 -0.050524432 -0.0093980525 0.31082228 -0.17608532 0.18918975 0.19828741 0.08886123 0.10644191 -0.22082655 -0.2658327 0.2163697 0.12536122 -0.13725983 -0.03199907 -0.1084542 -0.17303 0.4718209 0.044934623 -0.31716597 0.1427211 0.07221038 -0.0977149 0.10785729 -0.1779194 -0.057590913 0.2836068 -0.08397337 0.05999732 -0.102069624 0.16289511 0.25956467 0.08089026 -0.0005593532 0.11520353 -0.25749946 0.31113285 0.0033277716 -0.36046845 -0.10558371 0.30106017 -0.023116732 -0.30151123 -0.14903519 0.059440155 0.13013913 -0.2040115 -0.10547095 -0.12177448 0.59089583 0.18861844 0.021104442 -0.24247473 -0.22093041 -0.112715274
Free to Play -0.12578554 -0.42886382 0.049785506 0.08642468 0.23824106 0.13439046 -0.16974257 -0.13985106 0.29220796 -0.014560707 0.019538859 0.019113822 0.05113195 0.23464224 0.14519922 0.006558758 -0.085208714 -0.08043262 -0.25815985 0.1489957 -0.21927208 0.3136043 0.37085688 -0.028429652 0.021468125 -0.10358349 -0.19765987 0.049732424 -0.017285004 0.062735654 -0.091169335 0.14917806 0.21587844 -0.22002684 -0.26133344 0.115140036 0.056548867 -0.08163719 0.19181527 -0.4355531 0.2813773 -0.14043024 -0.3254198 -0.18954562 0.13791095 -0.164356 -0.17219312 -0.09130432 0.06515842 0.27468848 0.093542784 -0.04456644 -0.0941456 -0.16397046 -0.16957776 -0.17863582 -0.11164568 0.20550178 0.05964417 -0.03616732 -0.27423164 0.0323595 0.23124646 0.12144686 0.19259608 0.022146795 0.013812612 -0.24247977 -0.072428465 -0.06868697 0.14452448 0.27572852 0.10038251 -0.20178732 -0.08322006 -0.11267646 -0.03952236 0.002466964 0.13934954 -0.024248013 0.42228648 -0.15205741 -0.274088 0.32474822 -0.15236603 -0.1358269 0.394322 -0.16988114 -0.13383143 0.19271356 0.01852476 -0.15696342 -0.06217826 -0.23301445 0.18839352 -0.019882374 0.019047536 -0.084458165 -0.06770977 0.23197764 -0.049046032 0.27836588 -0.02139295 -0.006410038 -0.1975444 -0.12475362 0.21213742 0.32227284 -0.060940944 -0.1497349 -0.09550362 -0.12723242 0.06817423 0.1254441 -0.02407293 0.13922152 0.2193231 0.010414145 -0.5044404 -0.26630682 -0.07844551 -0.05962506 0.07163507 -0.14396724 0.055482414 -0.06762355 -0.27344677 -0.0469937 -0.32685858 0.24002934 -0.12008992 -0.015284425 0.2306625 -0.098847814 0.3919148 -0.108865045 -0.40752003 0.23274796 -0.121465206 0.21791601 0.022893097 -0.06876793 -0.048196655 0.1240437 -0.084481575 0.25834388 0.1574488 -0.01715237 0.07808236 -0.0058061397
Horror -0.14688067 -0.25817412 -0.13758332 0.008460231 0.04044619 -0.15732314 0.019129476 0.3166825 -0.06536459 -0.11375494 0.17019175 0.057646524 0.017982394 0.27317023 -0.035857413 0.15673712 -0.011764064 0.081790805 -0.44078138 0.07427188 -0.12827499 -0.197717 0.17691459 0.26634094 -0.021056557 -0.24151878 -0.07418222 -0.20449917 -0.39314193 -0.1912422 0.1994114 0.032752015 0.19663203 0.14209501 -0.06680708 0.07491309 0.39209235 -0.11597043 -0.060987104 -0.03711801 0.10344274 0.06650082 0.21305625 -0.2221137 0.50268435 -0.034459848 0.21902376 0.014189531 0.14255275 0.059154633 0.16609298 0.18282768 -0.152281 -0.1229168 0.14750782 0.22072153 0.06870443 0.35170254 0.099378295 0.1114203 0.19737123 0.14437047 0.18583736 0.25124013 0.144703 -0.17847371 -0.047995847 -0.40147904 -0.10206183 0.26810768 -0.061841473 -0.121689886 -0.16776109 0.07856943 0.18923345 -0.056380942 0.18689169 -0.022915455 -0.10170409 -0.09047297 0.44710702 -0.09900493 -0.24597652 0.36945713 -0.09069894 0.09515954 0.33912638 0.04067922 0.04068805 -0.05174768 0.05060744 -0.54140466 -0.18670243 0.123160444 0.28409237 -0.1286083 0.080053315 -0.18770762 -0.13746494 -0.08857919 0.043059163 0.4215753 -0.12307846 0.05578965 0.26678428 -0.21240307 -0.16787498 0.46991405 -0.19617184 0.0309067 -0.26038167 0.0627557 0.059442297 0.032532893 -0.43686315 0.006752936 0.40711462 -0.026503561 -0.22186051 -0.18238989 0.049703136 0.2706132 -0.20095325 -0.3403853 -0.006900827 0.17873155 -0.07616173 -0.080574654 -0.067734055 0.31966957 -0.019733172 0.17336948 -0.4733387 -0.48799935 0.044907447 0.26566613 -0.14965816 -0.13503662 0.19413261 -0.011158276 0.016673304 -0.35792735 0.06344152 -0.028864928 0.33277035 -0.07143956 0.10935959 -0.2698497 -0.41518867 -0.48618922
Difficult 0.2600128 -0.17270055 -0.22398594 0.023110613 0.027144346 -0.013296046 -0.011259091 0.24249674 -0.021668473 0.23877454 0.043733343 -0.1473088 -0.068700135 0.3705898 0.02235475 0.08793181 0.21115893 -0.08318943 0.24393317 0.08799099 -0.17145091 -0.15543775 0.1462913 0.009509986 0.23883134 -0.10321398 -0.22197019 -0.22264431 -0.045699533 0.07208902 0.05008757 0.013829946 -0.090401396 0.018502373 -0.29212078 0.13539757 -0.000119890436 0.11188707 -0.051649876 -0.079464324 -0.10449554 -0.026632672 0.12584968 0.08080451 0.0075702057 0.15313612 -0.10224267 0.09183344 -0.018590225 -0.036449693 -0.16862702 -0.04992015 -0.18714745 -0.09920496 0.16228506 0.44195595 0.027835572 0.14065872 -0.0999635 0.041102394 0.007283771 -0.09115063 0.26201314 0.16615658 0.12285608 0.089433745 0.056367073 -0.2629115 -0.22782005 -0.4188609 0.21578275 -0.14587763 0.13623169 0.03552877 0.2612694 -0.10310044 0.007808393 0.018644687 -0.09481852 0.08570371 0.17633574 0.1928585 -0.10040862 0.21291213 0.12364461 -0.20497125 -0.054191545 0.084347844 0.09257151 -0.1605409 0.180382 0.029072972 -0.056592997 0.081914425 0.1139207 0.027628489 0.2366865 -0.19499633 0.10616238 0.29763052 0.08573656 0.19466338 0.08955436 0.053048305 -0.19805123 0.102716975 0.13188753 0.32359466 -0.43636543 -0.31383803 0.15759653 -0.24606021 0.061712354 0.054246295 -0.3582152 0.06883262 0.37269124 0.16269644 -0.14759916 0.086789586 0.021750929 0.12754163 -0.037275076 0.061858818 -0.14525181 0.018038696 0.2446258 -0.21846724 0.035472266 0.49665606 -0.078167886 -0.07948452 -0.07875711 -0.12747824 -0.069714144 0.07434142 -0.08538022 -0.04355998 0.054273836 -0.06416866 0.25323975 -0.01611494 -0.0817489 0.057981525 0.033479903 -0.020783039 0.26304755 -0.005600178 0.16958186 -0.14826289
Anime -0.01283344 -0.020975921 -0.036134265 -0.026542021 0.41514155 -0.19432311 0.17833607 -0.102044 0.33750692 0.27807596 0.10048536 -0.1593249 0.053799916 0.16989787 -0.110255376 -0.17065966 0.1534827 -0.12292315 -0.18119381 0.32954073 -0.18207075 0.34583178 0.24646318 0.3663299 0.05165266 -0.016654108 -0.45848095 0.23822422 -0.28958815 -0.24823315 0.043113973 0.057117008 -0.043742526 -0.0850191 -0.24433438 0.07271444 0.43570155 0.18517514 0.28968105 -0.48611552 0.05756243 -0.24222015 -0.45824173 -0.2832717 -0.013755766 0.42892715 -0.0777642 0.1150809 0.0056483075 0.32805663 0.039104696 -0.2566937 -0.009056628 -0.19834334 0.31860948 -0.19527246 0.18886048 0.14921348 0.1365248 -0.053497054 -0.25175273 -0.19972855 0.32501802 -0.277498 0.013532143 0.2500883 -0.26506513 -0.3341273 -0.44540414 -0.0980045 0.14780243 0.30649 0.091157146 -0.41162622 0.2014348 -0.10286235 -0.26170027 0.09377554 -0.2687204 -0.20202336 -0.11272341 -0.26940787 -0.10656849 0.39345312 0.06749772 -0.098527156 0.082051225 -0.23927256 0.10647152 0.06525502 -0.06907741 -0.03732737 -0.1551254 -0.12447179 0.27775806 -0.12666598 0.11873063 0.028256508 -0.35791245 0.1336992 0.16607487 0.16039346 -0.092000544 0.08806409 -0.102014326 -0.09328246 0.543708 0.047966633 -0.04105258 0.05671175 -0.22500885 -0.28061616 0.46472624 0.19221228 -0.15804622 0.41735578 0.46495754 -0.07977521 -0.0512148 -0.1994959 -0.02785407 0.050600413 0.054536074 0.14873679 0.17909545 0.009557342 -0.03248481 -0.12057966 -0.17502196 0.2518928 0.30743083 0.39695042 0.08996163 -0.39850608 0.027961157 -0.008299768 -0.24081849 0.06362545 -0.20293304 -0.037917122 -0.15902364 0.3724053 -0.083753236 -0.36390102 0.42842463 0.12767313 0.06348778 0.051083297 -0.09318043 0.29335448
Open World -0.0292556 -0.12910205 -0.37831944 -0.12273159 -0.13115163 0.04389335 0.0039888257 0.2131047 0.042915188 0.20053284 -0.0067990865 -0.3042406 -0.03979437 0.5137642 -0.33986422 0.1394168 -0.2659786 0.04194302 0.2583951 0.31646457 -0.020956462 -0.13153498 0.4133697 0.24175186 -0.24462557 0.07352673 0.018147565 -0.086417206 -0.29101327 0.17046732 -0.14967835 -0.09997111 -0.21140237 -0.059341237 -0.23861775 0.10147669 0.026043084 -0.19350399 0.023724856 -0.2442914 0.023457728 0.042479433 -0.101974346 -0.18544409 0.29162905 0.00882724 -0.15455985 -0.2324767 0.10906547 0.21987364 -0.12932995 -0.06457399 0.22563137 -0.12675878 0.23324989 0.105729096 -0.38494325 0.044849943 -0.1244413 -0.1264746 0.10244729 -0.17850563 0.23066396 0.4371801 0.3594534 0.106451154 0.07954706 -0.32342303 -0.40139076 0.039155167 0.070612535 0.17890753 -0.19196832 0.11218788 0.28270915 0.08594115 -0.23952274 0.35706124 0.40469882 -0.089473814 -0.06516746 0.15402144 -0.44776142 0.08970295 0.38192293 -0.14739646 0.2522919 0.043169294 0.08506551 0.25422144 -0.26685277 0.018290648 0.21602519 -0.0075817984 0.19239509 0.1483198 -0.17001972 0.10288833 0.077120066 0.0824327 0.11974746 0.33692485 -0.121201366 0.07394364 -0.15317202 -0.08930995 0.25462565 0.13470416 0.20206335 -0.01834075 -0.04533631 -0.02366391 0.068279035 0.14806324 -0.006911173 -0.063015185 -0.22486547 0.029070115 -0.005625272 -0.059005626 0.33824274 0.35884964 -0.06494654 0.13174944 -0.20955162 -0.08765278 0.21462499 -0.0044387365 0.035926446 0.035973374 -0.26459202 -0.16575135 0.042287055 -0.032016795 0.0050337557 0.25606054 -0.31490764 0.119921446 0.19007705 -0.034003917 0.24744979 -0.049700268 0.088594146 0.2660114 -0.07694806 0.25374988 0.1864473 -0.13797206 -0.18353708 -0.19742194
Funny 0.007178418 0.023465704 -0.029903531 -0.0024767527 0.15040512 -0.17507508 -0.096717924 0.20029631 -0.05303284 0.3104866 -0.00643386 -0.08450525 -0.037689358 0.44494608 -0.20408192 -0.08716665 -0.1807463 0.09744931 0.1852373 -0.11097403 -0.13533159 -0.15315023 0.23928854 0.17005615 0.21480587 0.17347865 -0.2525737 -0.1832123 -0.32440424 -0.31617588 0.33204678 -0.21452661 0.18954025 -0.18939508 -0.23702449 0.12868701 0.2982756 0.17368218 -0.0063788607 -0.4352861 0.11742597 -0.22537845 -0.10441962 -0.029859005 -0.04283497 -0.11538621 -0.01811718 -0.0539642 -0.012077823 -0.055280093 -0.034112893 -0.06972664 -0.010136624 0.099383965 0.013914805 0.2964096 0.059649322 -0.080795154 -0.010032595 0.06804151 -0.00031941966 -0.2428046 0.0126980785 0.11939283 0.015050521 -0.12515447 -0.11836302 -0.077109404 -0.0583183 -0.004999718 0.021222163 0.01283214 0.18707983 -0.15224339 0.18740243 -0.107038796 -0.0587454 -0.0696691 0.04768571 -0.07526638 0.0657187 -0.17720754 -0.24208891 0.04619147 -0.08453459 -0.114712946 0.24412884 -0.051407933 0.14584303 0.014509915 0.052932177 -0.20883684 0.07925406 0.07996741 0.18945263 0.0028058838 -0.13940017 -0.11392455 -0.33215767 -0.07703961 0.112551525 0.03540945 0.15056856 0.038637552 0.14535724 -0.18065315 0.093578905 -0.13731697 0.23561756 -0.119644076 -0.041722097 -0.27283084 0.46661013 0.033977468 0.17668447 -0.07489679 0.33386692 0.03381639 -0.15863502 -0.1375808 0.25369215 0.03330385 -0.10777815 -0.25866503 0.18165547 0.37486857 -0.17508075 -0.012505855 -0.08262865 0.29586145 -0.023601608 0.18849987 -0.061637763 -0.15869167 0.020479042 0.23340207 -0.18188457 -0.04689315 0.017756306 -0.0063528763 0.07369041 -0.11697027 -0.029250786 0.131012 0.2532605 0.29521006 -0.028372502 -0.26113272 -0.011065845 -0.21271834
Pixel Graphics 0.3867342 -0.1200549 0.017547507 0.21982233 0.11357818 -0.14941305 -0.06372879 0.49466625 0.20716944 0.10889502 0.11222477 -0.027592218 -0.06349265 0.2828458 0.19623436 -0.3355005 0.11666791 -0.23079126 0.029163087 0.083813034 0.035711985 0.10568817 0.16600001 0.4685041 0.29675144 0.2439205 -0.27740365 -0.0145208 0.045988537 0.19581106 0.20394918 -0.07081128 -0.12857313 -0.09640611 -0.13231307 0.19677544 0.16193576 0.0919197 0.048679344 -0.115212515 -0.060101397 0.024434261 -0.021264428 -0.11530472 0.07119049 -0.034958392 -0.016328704 0.010012876 0.23183857 -0.1748102 -0.013289496 -0.021143094 -0.17527606 -0.18213275 0.18877424 0.26937014 -0.17510366 0.29035923 -0.033614747 -0.26005593 -0.028852213 -0.060104113 -0.10841545 0.036139186 0.022164488 0.2557491 -0.15307169 -0.11220916 -0.04788679 0.014849729 -0.08603422 -0.2227826 0.1851512 -0.26403308 0.23721862 -0.074308135 -0.076562785 0.2577965 -0.06336503 -0.08283605 -0.022818308 -0.20899391 -0.1351014 0.27670926 0.1460435 -0.037841838 0.054927148 -0.22197127 0.23185329 -0.20345223 0.21887314 -0.50020766 -0.05423064 -0.10090673 0.40628842 -0.16596618 0.2284959 -0.13760115 -0.09646505 0.2443624 0.09349572 0.14432079 0.12323324 0.17455316 -0.22044991 0.03781012 0.05044725 0.15091595 -0.34930462 -0.021946868 -0.26899186 -0.12268621 0.31134623 0.029177202 -0.34365338 0.10017431 0.3336859 0.26125875 -0.18436429 -0.061890163 0.013178513 0.25409818 0.08748576 0.028712276 -0.021143073 0.15475887 -0.11974039 -0.082693316 -0.032360774 0.21265784 0.13728587 -0.13959384 -0.061529078 -0.06404107 0.10270968 0.28529835 -0.038146254 -0.11888692 0.1237011 0.111586764 0.18701626 0.062019974 -0.026197774 0.12930565 0.27108914 0.0747204 -0.097832 -0.042689726 0.42292884 -0.313802
Co-op 0.38145006 -0.16052283 -0.2814244 -0.10627497 0.13987273 0.011666636 -0.009010772 0.49164948 0.012945854 -0.013145736 -0.12396544 0.12990274 -0.04271505 0.43743613 0.058015276 0.043248203 0.002224933 -0.0069388705 0.054080732 0.19812429 -0.06024179 -0.047093935 0.22882932 0.29743832 0.04359376 0.021900432 -0.053795177 -0.1734066 -0.2016834 0.1568069 -0.043641012 -0.23121497 0.20487508 -0.22410323 -0.28006876 0.32184997 -0.1398747 0.12455591 0.044161312 -0.06383522 -0.23191929 -0.015072067 0.00085477397 0.015576342 0.11026442 -0.0021103434 0.2120461 -0.04414098 -0.33666086 0.18642549 -0.06211083 0.20649321 -0.08989101 -0.35156634 0.13997607 0.027453264 -0.27797985 -0.12272641 0.021685222 -0.19510846 -0.2642605 -0.29460087 -0.06849476 0.29614255 0.049775813 0.22973734 0.268856 -0.0324251 0.014103662 -0.22820891 0.3874504 0.07341706 0.028436199 -0.060686808 0.18498376 -0.19872144 -0.13068879 0.15624095 0.41714612 -0.033522084 0.22204025 -0.17749813 0.10362769 -0.15285185 0.4089415 -0.27688864 0.30684417 -0.050425403 0.01974912 0.24619848 -0.07187703 -0.19034483 0.41461074 -0.00230944 0.121709235 0.11981061 -0.06681286 0.0653772 -0.044980783 0.005439178 0.08084887 0.1920274 0.0598256 -0.06984729 -0.25052485 -0.12112751 -0.10023986 0.36930254 0.15354022 -0.29090482 0.028960668 -0.091121905 0.24677499 0.31755012 -0.04076591 0.14456455 0.043827977 0.3487093 -0.19991812 0.027787248 0.0051423265 0.16224621 -0.0542894 0.1291981 -0.06734432 -0.08346131 0.2064414 -0.33689502 -0.04650013 0.4003885 -0.36108357 0.07819025 0.2119961 -0.24440952 0.10038219 0.19079469 -0.14637192 -0.14185616 -0.06310341 0.011633994 0.15555876 0.13562457 0.19871837 0.10101679 0.17119162 0.4231007 0.13420896 -0.17342617 0.030643256 0.054633968
First-Person -0.2541217 -0.10985436 -0.06528232 -0.3705575 0.17488754 0.0713251 0.024704158 0.01612621 0.16248271 -0.43785277 0.05232511 0.25468585 0.07484233 0.20726901 0.11278572 0.31493074 -0.2253451 0.30368403 -0.23153295 0.40339938 0.15417565 -0.19013585 -0.0055723693 -0.18444312 0.24071555 0.24568953 -0.20779015 -0.07549343 -0.19332449 0.26383606 -0.09504086 -0.28270042 -0.24230082 -0.0015804548 0.12219385 0.056237925 0.0457771 0.25885516 0.090032555 -0.34499574 0.21142763 -0.067334466 0.18994726 -0.0726484 0.1726061 0.1992944 -0.15356538 -0.117113516 -0.05861968 0.087021224 0.4084009 -0.11285918 0.1153021 -0.13572071 -0.16457824 0.18979166 -0.19010712 0.39493427 0.17354701 -0.21158926 0.2681546 0.013881485 0.15570404 0.46973014 0.1421237 0.11689177 -0.10754667 -0.2572051 -0.08813579 0.2861456 0.3255244 0.28465652 0.07311136 -0.054857463 0.06438059 -0.2999324 0.022003988 0.23765926 -0.0013454368 0.012031232 0.4757056 0.071426906 -0.1845361 -0.00042578336 0.26162863 -0.27446413 0.35520712 0.112098135 -0.06401137 -0.22523157 -0.20267406 -0.11989125 -0.168412 -0.07802998 0.4000219 0.32416415 0.031136384 -0.12737304 0.14484741 0.095507234 0.19167098 0.5371344 -0.19397002 -0.17788023 0.47369823 -0.06833287 0.16900721 0.050098374 -0.034196395 -0.09779194 -0.39399546 -0.06774025 0.1680844 0.049828656 -0.26027042 0.09032928 0.29066113 -0.19667865 -0.157374 0.088355444 0.1907059 0.016060695 0.22820626 0.0669376 -0.15128525 0.055104293 0.35964674 -0.24620824 -0.0016532583 0.29080617 -0.28534386 0.021750607 -0.19764994 -0.2514121 -0.012322328 0.00831733 -0.47403526 -0.031050436 0.20276678 -0.0067635044 0.16807498 -0.200471 0.38067952 0.08138599 -0.08713463 0.3192149 0.23621055 0.093970515 -0.18892092 -0.56370395
Shooter 0.4234034 0.21684726 -0.16625197 -0.0932614 0.13771492 0.30654848 0.21609162 0.44456396 0.11618111 0.4078005 -0.00011015749 0.13900475 -0.061357472 0.2666273 0.14823884 0.18839192 0.08958366 0.071672 -0.17551154 0.3656962 0.04413364 -0.21944848 -0.051909756 0.28047693 -0.19865346 0.08504836 -0.14242905 -0.36331818 -0.17540552 0.07387056 -0.65720123 -0.14506707 0.4283946 -0.14706413 -0.14587045 0.63820827 0.09475086 0.18643308 -0.038127482 -0.11641869 -0.17419466 0.04491141 0.2895486 -0.06658923 0.3846512 0.021509262 0.16577047 0.2431225 -0.20931059 0.3530782 0.080395274 0.053103734 -0.39441282 -0.34830144 0.14820738 0.0679424 -0.24898215 0.29941487 0.18990217 0.0018252373 -0.08478389 -0.09374633 -0.12775184 0.32557538 0.30897486 0.28948337 0.07007551 0.027703231 -0.19982757 -0.21002612 0.29742807 -0.08255902 -0.1552447 0.08691508 0.0746072 -0.08777338 0.10099686 0.18639556 0.17458574 0.13825257 0.012597549 -0.04860597 -0.10583407 -0.1025645 0.154471 -0.13305658 0.26163158 0.22535796 -0.08367413 -0.02747679 -0.26155588 -0.097925074 0.15720052 0.024646275 0.38615128 0.18231633 0.28172165 0.15761934 -0.2675615 0.23181984 -0.07699122 0.32148182 -0.21411201 -0.17519875 0.18775034 0.15834387 0.17116556 0.39971066 -0.27429932 -0.027818438 -0.2911569 -0.17427628 -0.2539611 0.1563219 -0.096065104 0.08830832 0.26019517 0.2812324 -0.21727273 0.112577446 0.04095879 0.16536261 0.16479103 -0.16233407 0.17346466 0.0036498806 0.22632705 -0.23327367 -0.22575179 0.39995435 -0.091767035 -0.046248704 -0.0016695494 -0.4201407 0.10400608 -0.008377705 -0.5018724 -0.07713271 0.16468678 -0.12961651 -0.12307316 0.07280235 0.16984697 0.15758684 0.31504762 0.057991017 0.40929338 -0.09377706 -0.08195988 -0.15577371
Female Protagonist -0.18900006 -0.3829237 0.13412388 -0.07937025 -0.039674018 -0.33851892 0.13983195 0.19835477 0.28451017 0.0552785 0.08767292 -0.17461309 0.10100303 0.44166926 -0.14663032 0.22229587 0.13936335 -0.22516178 -0.1600939 0.19002236 -0.15591809 0.17208844 0.17144914 0.22937146 0.1140089 0.11627515 -0.15711941 0.14955384 -0.24386744 -0.031788796 0.21255118 0.15125665 -0.20061721 -0.055060934 -0.07123878 0.22225897 0.556328 -0.061591618 -0.048282627 -0.3535095 -0.095959716 0.019574223 -0.11291589 -0.1609108 0.3157471 0.21963559 0.16274136 0.079020046 0.08910347 0.072040945 -0.12588578 -0.00022232582 -0.118430346 0.08053905 0.10785451 0.094697446 0.0017005769 -0.015980946 -0.037786074 -0.16946135 0.06941875 -0.069116086 0.18424003 -0.13244441 0.14303626 0.06901526 -0.3266374 0.0014155323 -0.25599012 -0.07170358 0.06376087 0.05283377 0.014236012 -0.0139288725 0.07352424 -0.061504677 0.03266631 0.09546384 -0.0042830864 0.116101354 0.16493998 -0.28116357 -0.12208507 0.27033505 0.098484226 -0.021371411 0.1716291 -0.034920547 0.056314234 -0.105994076 -0.050962795 -0.10207915 -0.09189526 -0.08153555 0.25323448 0.0493704 0.17716137 -0.1591822 0.31562233 0.010209322 0.075333394 0.1984993 0.3259513 -0.1290085 -0.24713631 -0.05747078 0.09939687 0.20927599 -0.19392163 -0.06978786 -0.08666069 -0.3230933 0.26633352 -0.023486814 -0.13690056 0.119561486 0.07653013 0.25946274 -0.29273617 -0.08576617 0.025068546 0.11537192 -0.110020384 0.07180797 0.062260367 0.2994156 -0.08490577 0.037877396 -0.022241846 0.37057763 -0.12621069 0.11230076 0.012234889 -0.41507295 -0.035643917 0.12887862 -0.1116628 -0.15670885 -0.023903728 0.20323835 0.25960463 -0.11235415 -0.20567806 -0.0942324 0.41333443 0.0705645 -0.06345066 -0.22878872 -0.18245138 -0.054389805
Sci-fi -0.081134655 0.05959733 -0.22751978 0.1264449 0.10037316 -0.0813846 -0.1798892 -0.026262501 -0.10713961 -0.100716755 0.0884572 -0.12014968 -0.11849135 0.26578957 0.12898576 -0.15709375 0.20212084 -0.26643687 0.047137592 0.18558072 0.246677 0.14177059 0.35172436 0.21953861 0.0016632467 0.08692259 -0.38667867 -0.17968783 0.0004912725 -0.09938543 -0.09625938 0.14439234 0.3815743 0.07554774 0.0004419103 0.56602585 0.11090595 0.20482369 -0.2365839 -0.14369555 -0.26266968 -0.026128944 0.20200819 0.1998932 0.13229449 0.07262277 0.15031618 -0.15114203 -0.06729231 0.19240503 -0.11089805 0.2755759 -0.16354935 0.20789196 0.05764839 -0.15283854 0.00034667287 -0.13685885 -0.16155475 -0.26265636 0.17080425 0.09375759 0.116921425 0.33223844 -0.024002386 0.18453647 -0.14377092 -0.24783383 -0.084313735 -0.0142776305 0.035363574 -0.2469686 0.061206136 -0.041692846 0.04624541 0.0996564 -0.20960666 0.40986332 -0.072535284 -0.20421803 0.08712452 -0.19669779 -0.13613021 0.34802234 0.15228239 0.027973343 0.13560294 -0.074825116 0.27829936 0.029223302 0.09457418 -0.067226216 -0.25931102 -0.013508588 0.4878982 0.4996931 -0.038750954 0.018275844 0.060947552 0.089931756 -0.087868504 0.09661789 -0.10664433 -0.28532273 -0.26207575 -0.35190368 0.16528526 0.05984634 0.14033231 -0.2058412 -0.04060674 0.09094741 -0.015368264 -0.0854031 -0.12763637 -0.14866021 -0.10960208 0.08661069 -0.3975114 0.10849913 0.29298964 0.36404032 0.35011572 -0.26760566 0.12427073 0.14515924 0.34880996 -0.215462 -0.3615885 0.4401973 0.12347131 -0.07691168 -0.24199913 -0.24913456 0.30293974 0.17263544 -0.3834282 0.03535262 0.10854205 0.011930845 0.16340637 0.0038737073 0.1164371 0.03580153 0.28967637 0.09272933 -0.027093463 -0.20738265 0.14552458 -0.24061957
VR 0.103310816 -0.24562354 -0.033261288 -0.30719417 0.19681714 0.24545296 0.054571185 0.2374482 -0.11137176 -0.07413716 -0.12882744 0.36104873 -0.07826068 -0.007462783 0.09626083 0.29029244 -0.15975721 0.08810834 -0.16131993 0.27448308 -0.18306838 -0.057517875 0.35142937 0.13460572 0.018497152 -0.0009695325 -0.42989758 0.077940166 -0.05022637 0.028712053 -0.3160596 -0.0025729812 -0.17480053 0.13221802 -0.1266844 0.0022906675 0.07101126 -0.0073772063 -0.006499199 -0.49427035 0.17728777 -0.22016291 0.12652335 -0.34665716 -0.043055274 -0.09017001 0.12204249 -0.0996008 -0.17967336 0.1287869 -0.045178607 0.1803689 0.087807536 -0.34645048 0.23664285 -0.069684975 -0.06957547 0.50302947 0.3892313 -0.28052264 -0.067581885 -0.12106 0.12556067 0.40147334 0.26965943 0.12964994 0.27706552 -0.122105464 -0.24872884 0.16645132 0.04305549 0.09928237 -0.008199365 0.019594505 0.056285776 -0.24217474 0.21408284 -0.052332446 0.11971716 -0.017532961 0.19106206 -0.005583057 -0.23690526 0.23341896 0.06369185 0.15554024 0.32113898 0.18715261 -0.019421412 -0.039115112 0.043075137 -0.072433636 0.15633583 -0.08327648 0.04879863 0.056581832 -0.11772367 -0.1542849 -0.16254571 0.1739581 0.015319984 0.32162902 -0.0058184103 -0.041601777 -0.2875825 -0.1424739 0.16552158 0.08100766 -0.24584803 -0.07041315 -0.14362594 -0.042754576 -0.12832907 -0.11905643 0.06763032 0.1367031 0.09285496 -0.22053139 -0.07331503 -0.018469589 0.19806299 0.114742845 0.20796524 0.07938178 -0.11001876 0.033203203 -0.06667686 -0.051446818 -0.06013335 0.14584546 -0.17561908 0.008051534 0.070579305 -0.15149762 -0.0045914766 -0.014508995 -0.46280432 0.05298152 0.053143047 -0.12282795 0.2781501 -0.108606756 0.087982655 -0.20491947 -0.33633518 0.117395185 -0.26412195 -0.0276434 0.07440295 -0.24928078
Violent 0.069819584 -0.2278066 0.09352081 -0.21609843 0.1770532 -0.0015162671 0.19674505 0.115752414 0.2647988 0.13174306 0.25422135 0.05903311 -0.22511008 0.3355869 -0.063355625 0.07759869 0.12660633 0.051743306 -0.29253525 0.13498667 -0.0062025418 -0.21295154 0.18394434 0.087389 0.16609465 -0.022252914 0.115900554 -0.19845502 -0.13309877 -0.1328171 -0.02525563 -0.22926496 0.1792222 -0.0019369246 -0.0614837 0.028467862 -0.032946214 -0.0021885396 0.14099862 -0.40861684 0.07569598 -0.01811329 0.09659179 -0.25252855 0.25290257 0.056652013 0.12314797 0.036390364 -0.03687802 0.32279235 -0.059470166 0.14619516 -4.116156e-05 -0.009590929 -0.1138398 0.46826297 -0.0065065376 0.1584232 0.050391257 -0.09957936 0.19119872 0.010547929 0.18732871 0.1390919 0.25407723 0.22415161 -0.12169014 -0.27580565 -0.25331947 -0.11407844 -0.1374876 -0.035697278 0.05096981 0.10699154 0.02046548 -0.16349731 -0.0023012406 0.010527145 -0.07735969 -0.07670624 0.025284331 -0.13928159 -0.40909767 0.22860716 -0.055655986 -0.1532082 0.41731662 -0.046211764 -0.2324746 -0.13301852 -0.34900963 -0.22113618 -0.13234574 0.098844245 0.22503589 0.014038761 0.08650021 0.035355743 -0.29850984 -0.13919069 -0.15408531 0.14939088 -0.14306933 -0.13770491 -0.06334298 -0.036438894 0.12288116 0.3330255 0.027595539 -0.09817869 -0.09003676 -0.1607924 0.12668322 0.20000985 -0.2729319 0.2907373 0.24155235 0.2066791 -0.254866 -0.11475259 -0.053440146 0.02087409 0.046981458 -0.31340912 -0.033281926 -0.028827371 0.005152588 0.047047388 0.12897223 0.21104762 -0.16052487 -0.0027989605 0.17669845 -0.40899768 0.050417367 -0.064376935 -0.43813086 -0.050109558 0.033987716 0.0019247211 0.04648623 -0.03871546 -0.12103572 -0.02558766 0.30554074 0.052821323 0.04093401 -0.11028677 -0.32849282 -0.050625317
Fantasy -0.13894089 -0.12559697 -0.031770393 0.3947213 0.1771246 -0.22076096 -0.104714625 -0.08758452 0.24604237 0.15074724 -0.018525353 -0.11005142 0.24083161 0.53412324 -0.28546545 0.13701493 0.115567826 0.001504343 -0.020358155 0.051787365 0.0047035157 -0.0004669738 0.22503938 0.31164765 0.23740886 0.08073457 0.21028103 -0.18366751 -0.32105836 0.01894852 0.30340463 0.23990177 0.114214994 -0.22855376 -0.1863091 0.57381815 0.38372627 0.23222615 0.09406522 -0.15831392 0.07196548 0.04253684 -0.20608416 0.29423016 0.39617214 0.16909157 0.11895527 -0.05740179 0.05341 -0.038411085 -0.21344818 0.2139642 -0.044160046 0.017941685 -0.009861063 -0.002829139 0.25181425 0.2083992 0.056693215 -0.12710701 -0.06838684 -0.026933994 0.11998419 -0.30794004 0.024274208 0.17454518 -0.0665868 -0.32911044 0.04258517 -0.26234508 -0.033878427 -0.03138121 -0.013011402 -0.101817384 -0.014351012 0.0038448253 -0.2297845 0.09456599 0.09050693 -0.2246307 0.1368573 0.009646508 -0.2045111 0.23353617 0.0019488507 0.008390172 0.018754793 -0.37606615 0.12893851 0.004485781 -0.073004246 -0.08753323 -0.07306242 -0.07679366 0.21147679 -0.08105684 0.29442376 -0.46554795 0.14792769 -0.0084009655 0.085121796 0.19338149 0.05366951 0.0075415755 -0.17142993 -0.1155995 0.18856053 0.09820146 0.15472363 -0.13180198 0.09344015 -0.20095198 0.2661751 0.084457934 -0.434667 0.27053455 0.05078297 0.33580983 -0.15713313 -0.36798483 -0.015277454 0.24785791 -0.050460923 0.22259176 -0.041126437 0.3536893 0.015433191 -0.18132052 -0.04760629 0.07149063 0.24154873 -0.10455604 0.077053405 -0.11566716 0.23636837 -0.12985507 0.15286195 -0.15247245 -0.12231499 0.0812369 0.26463458 -0.077353165 -0.045461595 0.29647675 0.34910184 0.27561787 0.087785356 -0.12889321 0.029572332 -0.21136685
Gore 0.006059605 0.10616833 0.07592812 -0.14980008 0.15544824 0.070767924 -0.033024546 0.3859991 0.23954026 0.08711256 -0.021291863 0.10527318 0.14365058 0.5617409 0.15450224 0.030328928 0.007776323 -0.07700291 0.025530178 0.33678243 0.029377218 -0.15002696 0.3739083 0.17065947 0.22072831 -0.33095706 0.014507027 0.026091428 -0.24323414 0.10798513 -0.0046838224 -0.25333518 0.34881434 -0.045927923 -0.210114 0.32106966 0.13511778 -0.017520446 -0.24301043 -0.11939989 -0.09650712 0.2627836 0.061606325 -0.09984493 0.1506207 0.22507931 0.02057488 -0.07344749 -0.112279914 0.046106454 -0.0234967 -0.08365711 -0.14340356 -0.44525096 0.13302644 0.2217832 -0.14615479 0.18986583 0.05410173 -0.17478013 0.07200071 -0.10586362 0.12555318 0.34018794 0.082432404 0.0874238 0.22021663 -0.23444347 -0.07981269 0.117370024 0.059421748 0.032421898 -0.07620125 -0.023114797 0.11399166 -0.076237276 0.03015723 -0.0689308 0.10724267 0.20132624 0.204156 -0.22805305 -0.2167847 0.22637099 0.14731687 -0.10796935 0.289296 0.030296901 -0.035591923 -0.1061353 -0.050790347 -0.10321315 -0.083828464 -0.2232739 0.027379178 -0.061866034 0.26669252 0.25073382 -0.23313302 -0.20595473 -0.15188481 0.38902003 -0.22453462 0.0538839 0.009080966 0.113337904 -0.07802231 0.20359613 -0.17880888 0.16727844 -0.1683716 -0.17397302 0.31817874 0.21129137 -0.04718801 0.07170823 0.53512526 -0.08032838 -0.09713845 -0.036055867 -0.04723322 0.17300019 -0.20237315 -0.11394743 -0.23285145 -0.048470307 -0.081118256 -0.26270646 -0.11993724 0.25998023 0.16236447 -0.07720866 -0.15938851 -0.49938145 0.025257282 -0.06497241 -0.2919337 -0.1712375 0.1566829 -0.1749551 -0.09979696 0.015659837 0.024128294 0.13834758 0.31425545 0.3407583 0.23347306 -0.206151 -0.15400217 -0.03388627
Platformer 0.2555199 -0.112976946 0.1685512 0.039184384 0.17777935 0.0064232354 -0.19676876 0.24258992 -0.040931616 0.28358838 -0.3663433 0.24808429 -0.11074906 0.43229932 0.0006498693 0.06642349 -0.2434304 0.113792405 -0.090547085 0.28340578 -0.06887566 -0.14872137 0.5142034 0.40477362 -0.2855876 0.12229192 -0.05980835 -0.34294924 -0.15678896 0.04150579 -0.18352109 -0.117626384 0.08328761 -0.2804879 -0.060102116 0.13813385 0.14492919 0.0816823 0.014258376 0.120517194 0.04994274 -0.028129404 -0.15239102 0.112541154 0.009634576 -0.0756238 0.22718188 0.044392597 0.25209293 -0.15591851 0.0646734 -0.26116544 0.15308352 -0.25497928 0.22701721 0.3398008 0.10940833 -0.053301398 0.007957166 -0.08243471 -0.19077511 -0.2446836 0.07680218 -0.0054405904 0.1833601 0.21889476 -0.011977653 -0.46279815 -0.25280586 0.04369863 -0.0306016 -0.079195306 0.22864729 -0.38056728 0.39180344 -0.31411707 0.12216854 -0.08532163 -0.1600435 -0.38875398 -0.05619118 0.22756448 -0.31932524 0.25700963 -0.14238927 0.108233124 -0.16552646 0.07655149 -0.21450698 -0.40504876 0.36832792 -0.2725256 0.03755081 0.24378605 0.3240135 -0.18254846 -0.116877995 -0.16007376 -0.3373149 0.21055938 0.21701759 0.34143278 0.20443507 0.07935529 -0.0074345954 -0.16963264 0.28639838 0.33991504 -0.33404386 -0.3166809 -0.20897394 -0.16074674 0.17926943 -0.049253773 -0.21123447 0.2880045 0.3277956 0.2807803 0.0014776366 -0.018715242 -0.011068347 0.13914898 0.054967906 -0.045450453 0.020474808 0.24046846 0.36873037 -0.31534743 -0.090933815 0.42655802 -0.33309785 0.06913015 -0.32024035 -0.49080864 -0.13234223 -0.04311354 0.18959022 0.15028201 0.094054006 -0.13397521 0.2260644 0.069699734 -0.07222188 0.16928516 0.18696228 0.30481732 -0.04292003 0.09920116 0.21779825 -0.4940874
FPS -0.020362183 0.0070367567 0.09119072 -0.05751282 0.13818394 -0.05152017 -0.3187301 0.1576077 0.17125538 0.14759937 -0.1434197 0.32777256 0.061664693 0.34531897 0.49892864 -0.0013763263 -0.012353226 -0.0492075 -0.13527487 0.44675222 0.061215222 -0.082060225 0.027433557 0.0018151165 -0.11605766 -0.30659646 -0.16799243 0.14356299 -0.05144285 -0.17830448 -0.21494548 -0.37627283 -0.060721245 -0.06454303 -0.2718393 0.12979825 -0.12294091 0.09737291 -0.1542691 -0.44318694 0.24648508 0.14282934 -0.07207791 -0.23528464 0.21031797 0.12877062 0.21833363 0.05842537 -0.26063007 0.14559643 0.32961157 -0.13126028 -0.3123921 -0.48263004 0.25555652 0.35814708 -0.33883336 0.49953595 0.025585577 -0.30158564 -0.042207763 0.006905151 0.20411757 0.546965 0.36983424 0.19401504 0.21345846 -0.2741846 -0.19067441 -0.060837235 -0.10880202 0.0062338 0.004483882 0.36694917 0.058820378 -0.20201491 -0.1414966 0.020116018 -0.050896708 0.026645472 0.35440418 0.008750749 -0.23078372 0.066856965 -0.10755296 0.04947611 0.53510034 -0.046181824 -0.09411006 -0.13337885 -0.1359273 -0.20197566 -0.11888144 0.1560963 0.29256067 0.12039989 -0.20954964 0.035973094 -0.28666973 -0.028235545 -0.06152349 0.3725586 -0.29742202 0.09856605 0.24644585 0.0007163399 0.17100029 0.31589437 0.03493067 -0.04237857 -0.14731362 0.13130248 -0.1817022 0.3170779 -0.1947144 -0.020993933 0.09366787 -0.19727822 -0.17369415 0.24078062 0.18438385 0.028996313 0.44415525 -0.03266778 -0.0569427 -0.041657478 0.07191874 -0.09055303 0.121521086 0.13678804 -0.27309823 -0.015836831 -0.15740654 -0.39692625 0.4302757 0.064174674 -0.56243616 0.05535215 0.036040466 -0.22755672 -0.0771869 -0.103415355 0.283732 -0.08177109 0.2978899 0.27176544 0.17553216 -0.036208466 -0.03018639 -0.38906723
Retro 0.38377517 -0.13766035 0.08457462 0.2784523 0.10601446 -0.28391245 0.020821324 0.524441 -0.036904704 0.12821917 0.14961497 -0.32716197 0.08598203 0.22928062 0.04957616 0.058054175 0.19617699 -0.17803295 0.254473 0.18166754 0.08266712 -0.25725543 0.29857537 0.3369853 0.090390556 0.20819597 -0.21705331 -0.084596045 0.01486967 -0.17779277 -0.19589946 0.09703882 -0.06856379 -0.037873328 -0.070913106 0.17703764 0.26218966 0.24764761 -0.25382838 -0.2965467 -0.032730456 -0.09978749 -0.16710368 -0.032600954 0.0012043795 0.41619048 0.16208836 -0.032620355 0.04911612 0.09646776 -0.046140052 -0.17703092 -0.22659945 0.069539465 -0.070379265 0.2473249 0.05126023 0.10627888 -0.26275483 -0.066230506 0.005173699 -0.14985158 -0.08712364 0.11980539 -0.090783946 -0.05106478 0.06012211 -0.06635647 -0.30423334 -0.011724857 0.11490817 -0.12509425 -0.034088053 -0.3064523 0.28238127 -0.09067038 0.17066541 -0.061624706 -0.1727234 -0.11576247 0.15964295 0.05724714 -0.098287106 0.26787576 0.108815074 -0.114052415 0.048395026 0.10439417 0.2011422 -0.34632224 0.058042776 -0.08908014 -0.1951497 0.19590764 0.29729128 0.19809105 0.1463007 0.123758465 0.027479125 0.1390642 0.042369444 0.31048694 0.19669414 -0.2975127 -0.12764025 -0.17344064 0.10824516 0.27254385 -0.0875395 0.0053620595 0.017781775 -0.41545042 0.088638954 -0.071879156 -0.21123601 0.036704287 0.2054973 0.37615833 -0.25275028 -0.17219973 0.08906397 0.07731237 0.1102559 0.111480415 -0.0025002446 0.33966485 0.006379814 -0.17493027 0.036042087 0.35909694 -0.008492554 0.058543555 -0.13626623 -0.4531949 -0.05561621 0.036325134 0.03390558 -0.23685752 0.17943726 -0.08687328 0.14700224 0.18138304 0.19293095 0.2313824 0.24703875 -0.115450695 -0.22309162 0.17248444 0.24820493 -0.28400403
Survival 0.41676503 -0.12628871 -0.032323275 -0.15417275 0.18540943 -0.11891201 -0.17878838 0.4714125 0.06744371 -0.11403398 -0.08195661 0.11882917 -0.10184672 0.45976454 0.042831887 0.13483354 -0.122159295 0.08200781 -0.11705185 0.011489415 0.16058038 0.019553792 0.10224537 0.18580928 0.029229268 -0.31114596 -0.24496315 -0.0074904384 -0.069621965 0.1629057 -0.15232721 -0.07180014 0.3334363 -0.2445026 -0.11704373 0.19077098 -0.11931446 -0.006922881 0.25375587 -0.18391985 0.060373064 -0.16470832 0.1934923 0.19588132 0.28635463 -0.038640738 0.14206699 0.01958503 0.05150848 0.28309363 0.108104505 0.08369628 -0.03177923 -0.18194066 0.013233896 0.11592407 0.008171207 0.3525769 0.14597175 -0.123354554 0.095056094 0.049959697 0.018012479 0.33341277 -0.078628905 0.37539673 -0.094474055 -0.004979531 -0.028654177 0.18033096 -0.12987939 -0.06597192 -0.08561278 -0.18826477 0.1938534 -0.34540477 -0.21131852 0.27400512 0.29467168 -0.12626214 -0.0358039 -0.14519608 -0.21562976 0.30931348 0.16888385 0.011302695 0.14929084 -0.153166 -0.09660648 0.14448053 -0.18733476 -0.29826593 0.037460975 -0.13249591 0.29431522 0.3447335 -0.113093145 -0.14953241 -0.1731701 0.053319402 0.17509232 0.33335975 -0.21489666 0.18207683 -0.25034252 0.14037298 0.05265943 0.3170252 -0.13612984 0.09383864 -0.26266888 -0.078551725 0.07888431 -0.08015064 -0.1942936 0.14508168 0.35928953 0.18526466 -0.30154857 -0.21642101 0.37321368 0.24323747 0.19773872 -0.02088639 -0.03327001 -0.036103867 -0.08372967 -0.05663173 0.12204148 0.21916619 -0.20354386 0.00309218 0.13882296 -0.34927797 0.2606644 0.07134282 -0.26046133 -0.309249 0.24373333 -0.05457464 -0.01803713 -0.23121727 0.044049807 0.399003 0.145153 0.37579477 -0.1749578 -0.24059403 -0.27881008 -0.258015
Sandbox 0.061352115 -0.2847575 -0.43512198 -0.29871064 0.17569767 -0.024465578 -0.14644621 0.10152326 -0.020823969 0.04527648 -0.09771927 -0.14932254 -0.1923209 0.23482881 -0.23438896 0.06710055 -0.20036541 0.08224567 0.27519414 0.23832713 -0.431877 -0.12815258 0.2568871 0.18200074 -0.08658618 0.24015431 -0.07906472 -0.46155635 -0.049398016 -0.007440088 -0.10021849 0.17149168 0.04548142 -0.18169667 -0.48623502 0.02230898 -0.23921938 -0.24194613 -0.34267342 -0.36037078 0.11991218 -0.28863606 -0.10857323 0.10189368 0.3830203 -0.3529618 0.1485931 0.0034435254 -0.18215406 -0.069232956 0.32008553 0.13275781 0.14187036 -0.046656277 0.3621457 -0.017790867 -0.08604746 0.43184087 0.16666979 -0.07125367 0.046233926 -0.33269054 -0.104348615 0.34774968 0.3613558 0.1298923 -0.06889655 -0.22427095 -0.18425539 0.064444326 0.056904864 0.2866217 -0.13332032 -0.041010655 0.26074943 -0.09374085 -0.2590876 0.16432479 0.43404198 0.032794695 0.23278849 0.20239854 0.029893441 0.21322276 -0.105436124 -0.010199386 0.284227 0.11538978 0.14981396 0.062098496 -0.09116911 -0.0534988 0.27730322 -0.22643268 0.24580194 0.24427596 -0.30712676 0.1555766 0.21477169 0.18218938 0.01960934 0.22175199 0.15139985 0.033368103 -0.2825146 0.12924635 0.055996057 0.0074305693 0.23666097 -0.15055178 0.2336843 0.17337929 -0.09302151 -0.02863724 -0.06868454 -0.07975433 0.17174816 0.08333112 -0.22229856 -0.021835167 0.284596 -0.007703861 0.21572356 0.22190493 -0.1041918 -0.046316564 0.27623487 -0.007183706 0.14546786 0.06177822 -0.19755161 -0.041612092 0.13179922 0.015320785 0.026837613 0.29687867 -0.006755499 -0.057646923 -0.16643903 -0.2668152 0.24164559 -0.17353168 -0.028625395 0.4282366 -0.2844817 0.2577558 -0.026366768 -0.092886895 -0.10694907 -0.3169472
Arcade 0.17116374 0.01940282 0.1280631 0.04057824 -0.13486432 0.23912475 -0.08569778 0.36845335 -0.12159606 0.20757698 -0.10965542 -0.00056739815 -0.07110743 0.2760649 0.07568312 -0.027493633 0.083445124 -0.047917575 0.021989604 -0.06524727 -0.2092556 0.0031565693 0.355502 0.058232456 -0.15422873 0.13011745 -0.043842632 -0.2650163 -0.1762858 -0.11894049 -0.24147879 -0.17309089 0.30682835 -0.059954505 -0.08293299 0.052963734 -0.044486508 0.25572738 0.050563484 -0.07434906 0.036341634 0.24462542 -0.1623767 -0.20371613 -0.0060914373 0.14427239 0.32900736 0.1634539 0.039402235 -0.12412885 0.12508747 -0.123438425 -0.19877718 -0.14404096 -0.053061936 0.48407894 -0.44795322 -0.11875407 -0.15835825 -0.082119904 -0.15711768 -0.22208126 -0.12365353 0.1576043 0.45755467 0.033513635 0.017938528 0.12554143 -0.20118068 -0.2782226 0.34665033 0.16787237 0.318968 -0.20564109 0.22233531 0.11751955 0.13802621 -0.12514775 -0.10210908 -0.046636105 -0.043105356 -0.15019591 -0.07259276 0.11341574 -0.114534736 -0.39939517 0.21981157 0.30416024 0.085523956 -0.059478782 0.32706207 -0.11806568 0.29977435 0.32057378 0.40089765 0.06320752 0.123317845 0.2007238 -0.4271607 0.49122602 -0.01209701 0.3650958 0.22751234 -0.033874247 -0.026693545 -0.25185013 0.24947213 0.38910946 -0.40441787 -0.22634943 -0.074556954 -0.31567708 -0.026546843 0.2134477 0.1561127 0.13105486 0.10683422 0.0581924 -0.21670884 0.17285477 -0.22284438 -0.015407398 0.14830951 -0.296446 -0.075003676 0.27170047 0.16769795 -0.3423869 -0.07505412 0.5774354 -0.09636052 0.18070114 -0.07870083 -0.097405374 -0.014708804 0.02804304 -0.3106695 0.1297708 0.057507835 -0.20700626 0.3065103 0.105292745 0.09502746 0.04362895 0.067493774 0.07660196 0.08057708 -0.16789892 0.4026546 -0.21835019
Nudity -0.2551214 -0.0419293 0.19698077 -0.12988715 0.121516086 -0.37364706 0.05805895 0.19712077 0.07310005 0.24710628 0.18065916 0.086944066 0.058432672 0.43182397 -0.04944782 0.18984035 0.065842204 -0.21666835 -0.12555201 0.37302762 -0.47987384 0.16609214 0.33831838 0.035730686 0.17635721 0.057288285 -0.04885743 0.0858438 -0.122862674 -0.1980319 0.14702228 0.121939905 0.10672938 -0.23945427 -0.27722555 -0.12543237 0.2429633 0.22553445 0.23626626 -0.29362577 0.17367357 0.13675404 -0.31627908 -0.3469954 0.45242706 0.04198281 0.05072557 0.08592841 -0.06831056 0.12584664 0.25129372 0.19205827 -0.15887135 -0.17527692 0.2403803 0.05685324 0.06259564 0.3989802 -0.09593236 -0.3698405 -0.15193422 -0.16937079 0.11630256 -0.15611304 0.43961132 0.23023821 -0.13782433 -0.31306216 -0.18117945 -0.0053201485 0.19421658 0.12884834 -0.068145715 -0.13300696 -0.10516733 0.07107623 -0.09249922 0.059707575 -0.08109063 0.029084317 0.20349397 -0.31799182 -0.40932605 0.2688745 -0.105005085 -0.03756601 0.123829156 -0.1397944 -0.1341885 0.15638785 -0.23758699 -0.10759964 -0.13899927 -0.12932849 0.37627226 -0.084033735 -0.017227056 -0.18971933 -0.03919917 -0.15790904 0.11856506 0.3075798 -0.13308856 -0.050290406 -0.047614772 -0.31499845 0.31090924 0.32049027 -0.09151786 0.10813634 -0.14500503 -0.23003843 0.24038729 0.08223485 0.019086605 0.21624155 0.33956096 -0.20172417 -0.0043193344 -0.2915255 -0.14540033 0.19165877 -0.14333616 -0.24966618 0.10706845 0.122877486 -0.02227947 0.21999373 0.08439657 0.15446052 0.00050977536 0.25730598 0.11778475 -0.13712434 -0.09984217 0.08051549 -0.38395745 -0.099746644 -0.018400988 -0.083841585 0.3281027 -0.0918699 -0.12370341 -0.39690444 0.17273326 -0.105073296 0.053027287 -0.23860495 -0.07274644 0.048514344
Comedy -0.17574531 0.09292928 0.24809335 0.05649367 -0.09796885 -0.30912966 0.03716148 0.2226192 -0.14156231 0.06392279 0.009354091 -0.08908317 -0.1675094 0.424541 -0.11341124 0.10110906 0.018828657 0.14492767 0.02012671 0.3972645 -0.21893871 -0.084534004 0.009726256 0.25670847 0.10417252 -0.05871538 -0.027352314 0.03403988 -0.0008992811 -0.3644876 0.20553572 -0.067868814 0.29083374 -0.013533329 -0.083273284 0.11722021 0.3860723 -0.05426099 -0.038798474 -0.25425845 0.18210374 -0.060579553 -0.13932948 0.061287224 0.13696422 -0.059440553 -0.135574 -0.02638891 0.096943915 -0.04550105 0.12601276 -0.10062314 0.03891598 -0.10026747 0.15811111 0.23781961 -0.04758214 -0.12869851 -0.0031057375 -0.00578321 -0.18948641 -0.17484118 -0.28368694 -0.057992205 -0.016210273 0.16445191 -0.16930306 -0.15225573 -0.2477466 -0.15579668 -0.25070828 0.20475344 -0.13569169 -0.1696091 0.33705464 0.18761845 -0.043970417 -0.1646715 0.080018856 0.05366598 0.058624536 -0.27961898 -0.07267762 0.23599677 -0.19056056 -0.033328503 0.027106514 -0.01945464 0.063758545 -0.06080913 0.111610204 -0.26637727 -0.07000997 -0.077578895 0.39184824 0.28895414 -0.021151775 0.039935645 -0.002506289 0.22792381 -0.050370723 0.20951188 -0.0064711687 0.12367565 -0.00019433431 -0.03838729 0.18507445 0.08777527 -0.10119572 -0.06603004 -0.019424869 -0.26273534 0.3901366 0.01795904 0.15311144 -0.17313446 0.24594237 0.24407348 -0.31678182 -0.09531042 0.123506054 0.10140417 0.14313847 -0.2944099 0.022960834 0.16975904 -0.19431326 -0.19883591 -0.059305836 0.010600641 -0.19393224 0.0032133025 -0.03995136 -0.43552727 -0.067621194 0.19674529 -0.08798113 -0.13871747 0.023781655 0.06760761 0.038082995 0.0056514875 0.014186522 0.12026691 0.32218164 0.06329161 -0.11865073 -0.1223568 -0.06189653 -0.05452006
Family Friendly 0.413132 -0.0125882 0.12377693 -0.23216784 -0.2618152 -0.13532056 -0.13016884 0.15341474 -0.18976709 0.06447138 -0.055314317 -0.16407585 0.06666844 0.39753315 -0.12062711 -0.108570054 -0.333192 0.55660033 -0.08613795 -0.26512164 -0.25474238 -0.17667185 0.18499473 0.13035104 0.15370624 0.044629045 -0.051962335 0.09500539 -0.33650002 0.044709016 -0.0069759134 -0.18961875 0.14448524 -0.174511 -0.02132204 0.30893472 0.34164053 0.26196817 0.11742928 -0.36292878 0.04324199 -0.051733866 -0.059302565 -0.010192892 0.08906036 -0.25282404 -0.26151678 0.035255704 0.38601443 -0.09359814 -0.16227683 -0.0753092 0.2300894 -0.03913534 0.123846866 0.00022432834 0.030739428 -0.39586625 0.08490591 -0.12221102 -0.18533863 -0.3391164 -0.13839735 -0.0044846325 0.043891136 0.082126126 -0.00074092636 -0.37812215 -0.26836157 -0.1658457 0.2526897 0.1827799 0.038487166 -0.013213183 0.21802999 -0.0158269 -0.14003192 -0.10724812 -0.05896548 -0.21293844 0.16484435 -0.35379356 -0.12600106 -0.12351553 -0.03383374 -0.22790629 0.16228688 0.0968313 0.25786656 0.1420148 0.4014175 -0.25925556 -0.052552745 0.17897023 -0.0013678985 0.3589221 -0.24907237 -0.3806485 -0.019216476 0.45625427 0.16545606 -0.07842371 0.3193814 0.1504416 0.07926608 -0.17446423 -0.006592053 0.15146127 -0.34861323 0.100400314 -0.20029749 -0.090500355 0.24253151 -0.15530667 -0.10917911 -0.21814321 0.23846559 0.29297608 -0.348119 -0.113777325 0.24085669 0.11941389 0.32328916 -0.13818693 0.13368796 0.20308298 -0.14618875 0.044510588 -0.26219675 0.12588121 -0.278428 0.12497324 -0.019740358 0.16191074 -0.015403214 0.23653008 -0.0936641 0.17485313 0.19559066 -0.10959486 0.37991846 -0.15979224 0.2162291 0.31601554 0.13709964 0.16857946 0.01449234 0.07600166 0.23495878 -0.12073941
Classic 0.39722538 -0.18312353 -0.0009416389 0.15968432 -0.18940388 -0.045350503 -0.03176797 0.34613833 0.0014044641 0.30661908 0.18511139 -0.003430038 0.034423977 0.6469584 0.14146832 0.2865807 0.058455735 -0.06337673 0.075703815 -0.014546923 -0.04334632 -0.11080081 -0.07570156 0.14315906 0.07474037 0.13260248 0.11127211 -0.20560677 -0.13168459 0.08065838 0.19069433 -0.1424213 0.025211439 -0.020161396 0.10628854 0.40414542 0.11280846 0.09293787 0.12048876 -0.24728477 0.03315923 -0.13807358 0.07714672 0.112353586 0.11907318 0.5943358 -0.1284414 0.114522114 -0.20173584 -0.2047551 0.18479745 0.10392546 -0.17748985 0.069413245 -0.13604699 0.25173292 0.050560836 -0.27584302 -0.15892732 -0.09052797 0.24162592 -0.22115983 -0.0016107915 0.24468362 0.009264797 0.22570065 -0.065785415 0.12196626 -0.12516293 0.031245248 0.1253938 -0.05996875 -0.06517679 -0.08702805 0.3589528 0.079082504 0.0011358655 0.328513 0.3215356 -0.006713206 0.3081656 -0.0753464 -0.11513957 0.27329132 0.071326315 -0.023170792 0.14410311 0.105483085 -0.030317828 -0.24898769 0.22782731 0.014290248 -0.23365892 0.14401919 0.1260557 0.03724157 -0.017664548 -0.01772603 0.0021299552 0.14291352 0.3573408 0.21826227 0.1346462 -0.18831962 -0.18913727 -0.13995138 0.34290028 0.08805051 -0.06416901 -0.10798883 -0.29517466 -0.20970827 0.32185838 0.022382088 -0.17656422 -0.35918778 -0.23914796 -0.043987785 -0.11790803 -0.15296657 0.16789661 0.21812022 0.0036686943 0.01914031 0.23201302 0.0008167564 0.15431371 -0.3081736 -0.058068078 0.20165049 -0.14503218 0.14088896 0.20059924 -0.14901946 0.06576907 0.35514137 -0.04378316 -0.21045785 -0.14246446 0.10609183 -0.02985593 -0.00881713 0.0640875 0.20704006 0.39882293 0.14727674 0.30882886 0.1883541 0.01980413 -0.0014606684
Point & Click -0.104205005 -0.39190492 -0.11190907 -0.14475328 -0.36468226 0.22230884 0.17027278 0.07117527 0.13224077 0.4131838 0.16839004 0.05700298 0.12601891 0.5086225 -0.12283921 0.2564462 0.10275954 0.34634688 -0.4648504 0.5714627 0.100566916 -0.24104252 0.03342214 0.011762709 -0.18368453 -0.23121457 -0.046294767 -0.109131895 0.1013206 -0.14267136 0.1071438 -0.16637233 -0.22018278 0.10945895 0.07555937 -0.25422078 0.8860637 0.0896538 -0.10175961 0.29464084 0.27070767 -0.017297499 0.24950911 -0.18489346 0.02740365 0.080361426 0.32047847 0.113928944 0.21541475 -0.1869765 -0.078604266 0.1258238 0.1414755 0.2264049 0.14653057 -0.105732456 0.16025276 0.39902633 0.011108992 -0.37219098 -0.22608212 -0.36821282 0.036822762 0.14027062 -0.10471483 -0.11668004 -0.37461758 -0.5464149 -0.3531804 -0.24750072 -0.1699486 0.35514516 -0.20874226 -0.10938142 -0.0496332 -0.16957994 0.088157654 -0.16887549 0.389452 -0.2529994 0.267421 -0.20488954 0.09039686 0.50731117 -0.34084094 -0.07176582 0.37202862 0.51353186 0.22089118 -0.36944085 0.480992 -0.043362044 0.04220162 0.13065806 0.32761303 -0.0049299086 -0.12619781 -0.34790447 0.085603505 -0.006465462 -0.047515266 0.19405955 0.15349261 -0.20389836 -0.1464107 -0.56721276 -0.146576 0.04899907 -0.4291503 -0.086948104 -0.23994677 -0.030924493 0.4053875 -0.30057263 -0.3777728 -0.14425161 0.32817888 0.0090501495 0.22207366 -0.45925483 0.16321225 0.19344188 0.024836402 0.116338186 -0.07533783 0.16462396 0.30179462 -0.099265985 -0.2635058 -0.0027486533 0.043971192 0.20187254 -0.074216545 -0.51791567 -0.092315376 0.34390107 0.031575963 -0.19651827 -0.32778326 -0.36904973 0.12998147 0.027128378 0.18956523 0.16587591 0.6695519 0.15437542 -0.014194574 -0.28766608 -0.25824004 -0.2404045
Sports 0.3587242 -0.06738542 -0.18761824 -0.41749477 -0.030999206 0.0889056 0.0039496496 0.015671512 -0.08625264 -0.17021893 0.105852656 -0.018340005 -0.10821437 -0.13329248 -0.06721789 -0.16756734 -0.19874062 0.21133979 0.07439528 -0.2074048 -0.33680034 -0.16365203 0.4398996 0.10247184 -0.11097405 0.07111541 -0.011041902 -0.013084096 -0.29677778 0.06639217 -0.088114716 -0.20813233 0.47011077 -0.1724125 0.124499716 -0.30949822 0.0049276766 0.20418826 0.091739304 -0.44038194 0.28738573 -0.22841622 -0.30945158 -0.09155705 -0.2132249 -0.05273281 0.33756694 -0.22311608 0.08185409 0.32347536 -0.009080063 0.5805402 0.06805651 -0.2608368 0.31184062 0.08249164 -0.18809246 -0.16118228 0.37367782 -0.095567234 -0.034215074 -0.21505398 -0.18278399 0.09388575 0.2517019 0.16882716 0.5073972 -0.5235713 -0.4906177 -0.09934627 0.18693182 0.33792794 0.42920232 -0.12275918 0.06397511 0.06618342 -0.15609294 -0.078356735 0.08872336 0.03454168 -0.049229793 -0.15381679 -0.24268167 0.31000167 -0.17263728 -0.5562523 0.5384934 0.31143492 0.2852224 0.13191505 0.22386245 -0.36859557 -0.017100364 -0.031817324 -0.028572172 0.11110446 -0.16016988 -0.18155496 -0.31757635 0.42269963 -0.057301827 -0.0001183986 -0.07830695 0.26262856 -0.3421582 -0.4827622 -0.043375578 0.14626358 -0.38715777 -0.24501243 -0.027245391 -0.49056748 0.19095479 0.1843839 0.32639712 0.22572924 0.11890314 0.13299476 -0.30742753 0.15970317 -0.08094986 -0.008312593 0.116772406 0.010415646 0.3196863 0.06779091 -0.5101257 -0.09845287 -0.26647118 0.35206482 -0.35746205 0.07233392 -0.031085027 -0.18678504 0.16905014 -0.042133 -0.35032555 0.15664469 -0.20624971 -0.1630365 0.2369568 0.007143494 0.050931796 0.042260274 -0.29898706 -0.06380965 0.21073548 0.062529474 -0.04773328 -0.045233455
Masterpiece 0.12062543 -0.20349845 0.120297424 -0.21122904 -0.2487032 -0.09126471 0.013267004 0.029664 0.28686914 0.21236148 0.07470067 0.07822931 -0.17278787 0.35664588 0.0046485006 0.3321935 0.102224655 0.0066005643 0.1800276 0.027202375 -0.18421973 -0.010019539 -0.039112862 0.12032024 0.24677163 -0.21203056 -0.10476667 -0.25521806 -0.059598353 0.024654958 0.086364724 -0.070292324 -0.10175789 0.013909145 -0.041593302 0.3681171 -0.080325164 -0.07600889 -0.043610238 -0.3235032 0.008180575 -0.023467148 -0.15483928 0.035389226 0.055105478 0.38893124 -0.115755945 -0.079048015 -0.13629799 -0.121253185 0.1028676 -0.1292555 0.17607552 -0.004940332 -0.028859314 0.031955294 -0.0804368 -0.15605375 0.029363798 -0.16016424 0.30774245 -0.11562759 0.1602833 0.3027914 -0.08555738 0.15194704 -0.11618876 -0.23840953 -0.29822746 0.03309579 -0.06028286 0.026776716 -0.1696964 0.08865806 0.4109566 0.0607278 -0.1800865 0.21619196 0.119965486 0.11037056 0.2581227 -0.070751436 -0.060543567 0.1167858 0.20132864 -0.083172336 0.071495704 -0.18231294 0.10080381 -0.050013464 -0.07936064 0.019439152 -0.076389864 -0.03243784 0.11810752 0.13028839 0.0142964795 0.10802109 0.277147 0.122734234 0.13412812 0.054344952 0.17137142 -0.19577338 -0.06621879 -0.1491975 0.16710085 0.059266873 -0.20675126 0.101366945 -0.009059974 -0.033570804 0.3561503 0.15716672 -0.40237176 -0.11742907 0.1033827 0.31905738 -0.15953687 0.047081508 0.0660187 -0.02367625 0.11214429 0.027783895 -0.051912874 0.0060981726 0.22218846 -0.29961947 -0.06805242 0.17314698 -0.21816109 0.06676214 0.07836774 -0.23828612 -0.04471537 0.12821987 -0.08530709 -0.1627766 -0.041197583 -0.08656171 0.12443407 0.049609542 0.2368254 0.1977758 0.43472818 0.25239074 0.10131274 -0.044454105 -0.063772164 0.04664185
Cute 0.08347669 0.02875574 0.055074576 -0.01699751 0.024629151 -0.21030681 -0.29784414 -0.0742075 -0.1704884 0.024303716 0.08729156 -0.20716827 0.08487846 0.50506526 -0.047900226 0.03394773 0.06490232 -0.03314305 -0.17927918 0.067845695 -0.23111483 0.0008443838 0.03718059 0.120160855 -0.09434047 0.079915345 -0.1788071 0.22028002 -0.020147992 -0.098448485 0.036994815 0.059458353 -0.08397333 -0.24189752 -0.09125798 0.2541557 0.36352298 0.24966063 0.09282089 -0.30904365 0.01395814 0.06829655 -0.38462406 -0.010353907 0.35417485 0.0457064 0.030520596 -0.1365943 0.24749957 0.040226962 -0.19161558 -0.012568939 0.06375276 0.1217256 0.25047565 0.04888485 -0.035272118 -0.06874149 -0.046961293 0.122498326 -0.13539295 -0.046107177 0.16899443 -0.20536064 0.010787025 0.2808609 -0.21976615 -0.18976514 -0.19102038 0.16342811 0.052480955 0.17627336 0.05457508 -0.29637694 0.18526289 0.17813204 -0.18938819 -0.043069858 -0.13398017 -0.24326636 -0.051962543 -0.36424646 -0.09864459 0.22987995 0.10958527 -0.13062568 -0.009634867 -0.0001226873 0.20149271 0.20620863 0.15258294 -0.26609766 -0.09260723 0.0887643 0.29122484 0.024629483 0.051411048 -0.18886752 0.049151957 0.1640286 0.31740227 0.055218104 0.036952727 0.049277406 -0.05551959 -0.012441621 0.42554945 0.13585564 -0.14306647 -0.0929099 -0.10108028 -0.4998853 0.32993856 -0.020566456 -0.32002223 0.32548293 0.36276636 0.053830355 -0.39870787 -0.1299991 -0.14953871 -0.004143 0.04777816 -0.1515471 -0.19327512 0.39244184 0.313566 -0.04574639 -0.1310982 0.27814144 0.1287201 0.03708397 0.15760523 -0.29259652 0.050888356 0.25993767 -0.004054931 0.0783178 -0.14221461 -0.09601775 0.37901446 0.0291157 -0.15892756 0.05036116 0.39147428 0.2376009 -0.008444484 0.15784137 0.12951416 -0.094098814
Visual Novel -0.15268335 -0.48255152 -0.15786031 -0.25505584 -0.25083956 -0.13673298 0.29667708 0.34790868 0.07469824 0.16194434 0.031199034 0.2306964 -0.30193445 0.354007 -0.056757845 0.40022743 0.19960327 -0.13624145 -0.28593826 0.33952102 -0.44122082 0.193294 0.19184703 0.029141918 0.1967636 -0.034113035 -0.15135138 0.4022294 -0.21857545 -0.02718326 0.09643318 -0.02816305 -0.4503523 0.010614227 -0.06092205 -0.09212324 0.93151367 0.15639272 0.28868926 -0.28479466 0.1190527 0.010530704 -0.2013242 -0.20154887 0.2382812 0.22261387 0.270479 0.057787694 -0.014126261 0.32427514 -0.095918596 0.017676765 0.20492613 -0.21920367 0.27117923 0.28280073 0.0054991064 0.36967778 0.046785187 -0.11547925 -0.08265917 -0.38827574 0.11464754 -0.3395455 0.26185545 0.1443252 -0.15060821 -0.3605008 -0.48562497 -0.0043941094 0.23523027 0.37165976 -0.14066371 -0.07837402 -0.23662049 -0.10644393 0.25208852 0.018005202 -0.14257178 0.034149036 0.22146659 -0.5377396 -0.1383879 0.38511416 -0.21111685 0.19026417 0.49898008 0.16046378 0.11788739 -0.008804615 0.053994514 -0.08467026 -0.2682333 0.03971902 0.19435808 -0.14024395 0.20956689 -0.38906425 0.20187531 -0.04136935 0.24953303 -0.048764274 0.015243823 -0.05255988 -0.18220218 -0.11871341 0.21870744 -0.20550382 -0.41362238 0.020002972 -0.39254394 0.02261152 0.617026 -0.32798812 -0.023302767 0.32706448 0.2465676 -0.27956885 -0.013787669 -0.42402172 -0.19047457 0.11846077 -0.37459856 -0.13681121 0.044564687 0.1779726 -0.031604424 0.0686481 -0.039657768 -0.06774072 0.081291646 -0.0130354455 -0.067124695 -0.24755156 -0.33938718 0.38510928 -0.47824168 -0.057911757 0.09954921 -0.08258546 0.1956569 0.007532421 0.11298811 -0.29559082 0.5386022 -0.034862142 -0.02078966 -0.32413566 -0.14473487 -0.119505346
Massively Multiplayer 0.10755977 -0.41785124 -0.2779942 -0.12866317 0.03361766 -0.07638854 -0.052575603 0.16189155 0.054103535 0.22499767 -0.16578928 0.19979122 -0.058514737 0.1842471 0.008913006 0.114164285 0.07358789 -0.10957296 0.0068742335 0.08451498 -0.23930997 0.4722598 0.20935492 0.19779205 0.20796628 0.13426928 -0.23124163 0.27949128 -0.3089238 0.09767889 -0.21468024 0.020568382 -0.021171544 -0.19394949 -0.27433032 -0.057264 -0.24780585 0.12299829 0.11140906 -0.4394045 0.09452356 -0.17286445 -0.14734067 -0.04220142 0.22214778 -0.026296657 0.11097572 0.01652214 -0.39788178 0.3412508 0.19433759 0.2904938 -0.088568754 -0.4995618 0.12800612 -0.21634965 -0.18614797 0.286423 -0.14424825 0.03390697 -0.09264813 -0.371949 0.025749736 0.09125377 0.40418535 0.32201222 0.3793501 -0.25570828 -0.1360701 -0.104672715 0.36785328 0.39314735 0.024813969 0.13098848 0.07038474 -0.02965739 -0.05495146 0.068186454 0.47989947 -0.3458252 0.16915989 0.06831885 -0.14188917 0.31539416 0.082387775 -0.07594093 0.5900454 -0.13213752 -0.17358768 0.23087601 0.035599418 0.03156259 0.1247013 0.007723078 -0.00475484 0.18282315 -0.0800583 -0.17888536 -0.11963698 0.29365405 0.08971029 0.5952015 -0.047134046 0.052105073 -0.2000388 -0.2692908 0.1417323 0.40498114 0.041607503 0.04729688 0.005417073 0.11118997 -0.11230025 0.13655093 0.2991761 0.0531309 0.11656917 0.12403225 -0.0802763 -0.11666485 -0.1697497 0.238907 -0.077304445 -0.015463021 0.15760788 -0.23648612 -0.239096 -0.14092615 0.05920724 0.17257932 -0.49703518 0.005665682 0.31489336 -0.32980415 0.34066468 0.11804779 -0.18162721 -0.09169105 0.26577687 0.13748842 0.1615754 -0.009683744 0.1072522 0.17836921 -0.2210509 0.33924103 0.049151137 0.17520957 -0.16995265 -0.28341374
Turn-Based 0.30894193 0.05154028 -0.41823477 -0.19885463 0.14188692 -0.41587272 -0.032990534 0.5286405 0.20457405 0.109621905 -0.039444946 0.15020208 -0.10257511 0.23534957 0.043505535 -0.20998122 -0.047291093 -0.2881121 0.00019743692 -0.16585825 0.3258599 0.14996225 -0.042831898 0.12213455 0.3315554 -0.1584571 0.0010412068 -0.16498497 0.085502595 -0.2324839 -0.056537114 0.13239336 -0.14052854 -0.31647134 -0.17196347 0.061359826 0.31200784 0.30660158 0.39311808 -0.1613978 0.14945436 0.003473374 -0.5320641 0.06441757 0.2735801 0.3075898 0.22530313 0.047512084 0.11479842 -0.28564048 0.011080187 0.16359293 -0.21239133 -0.11449622 0.036249273 0.268838 -0.2241337 0.4689224 0.040307935 0.10389991 -0.12091543 -0.44846198 0.013285363 -0.063872464 0.065991126 0.21034528 -0.14648788 -0.46770102 0.15585455 -0.21509247 0.25845712 0.17135836 0.09857125 -0.23362723 -0.16302706 0.10975215 0.100602515 0.13282998 0.03586866 0.3059368 0.44669303 -0.2550403 0.20853095 0.34140947 -0.030495606 -0.17045291 0.14688434 -0.033986986 0.39654028 -0.16648567 -0.2568549 0.3216345 -0.044615533 0.0070812292 0.20822938 0.44614503 0.31561092 -0.23286995 0.35142845 -0.1406401 0.2723189 0.038990606 -0.10815603 -0.020018933 -0.18174234 -0.5015118 0.2933874 -0.014597917 0.06676071 -0.026235642 0.19465734 0.041589543 -0.044728167 0.07015553 -0.37463555 -0.0811049 -0.06675511 0.23150256 0.021954177 -0.17973448 -0.1415275 0.00263077 -0.10869702 0.2687447 0.04679391 -0.23366134 0.00979265 -0.10849532 -0.2760105 0.25571686 0.0740799 -0.079879165 0.2269123 0.13165623 0.5689611 0.34144965 0.032057237 0.13387479 0.120651305 -0.21825737 0.0202216 0.012319856 0.19865616 0.29330453 0.794539 0.1921385 0.23643246 -0.38233662 0.15200289 -0.28641436
Exploration -0.20930304 -0.118302375 -0.22067553 0.073945135 -0.018752098 0.10540876 -0.018923158 0.35122886 0.31017387 0.12532593 0.051559407 -0.10999134 0.0121091325 0.38192555 -0.2776283 -0.02473526 -0.008291904 0.09582214 0.39551148 0.21092543 0.07737089 0.053052407 0.21048132 0.12550631 -0.013665771 -0.010458927 -0.024173856 -0.068009086 0.040803555 -0.021302458 -0.07864432 0.06553017 -0.2799717 -0.24411526 -0.25467625 0.3146072 0.01965671 -0.36368567 -0.09771101 0.015740937 -0.13844511 -0.047871348 0.08763522 0.037480827 0.30849168 0.1269341 -0.20799875 -0.20628819 0.1993259 0.06136853 0.07674479 -0.13938493 0.041121148 -0.014913246 0.11169977 -0.07628364 0.040036876 0.13659184 -0.0053184954 -0.26276523 0.052586216 -0.1420573 0.33626524 0.088042825 0.26899698 0.20785901 -0.031146992 -0.135834 -0.11496392 -0.18952744 0.008607434 0.047378857 -0.10249122 0.024054928 0.2015016 -0.044796817 -0.42355537 0.03808831 -0.074394815 -0.2064458 0.15920694 -0.004232847 -0.3989916 0.33975458 0.24952151 -0.023873385 0.16669278 -0.05872581 0.14038761 0.11929367 0.07722633 -0.12251835 -0.15161495 0.105699785 0.2991683 0.23492011 -0.13812652 -0.30180463 0.25190717 0.054944817 0.13006973 0.32136792 -0.0027749278 0.15617274 0.16235478 -0.16982359 0.11090839 0.07177246 -0.26146945 0.07061488 -0.24721602 -0.10580476 0.01635681 -0.01164134 -0.10695674 0.09664039 0.3133568 0.10876149 0.06730958 0.064786956 0.38917583 0.20245394 0.098630175 0.3353081 -0.14983712 0.095060065 0.18016723 -0.118528716 0.039906893 0.20955005 -0.13474835 0.061926823 -0.26678666 -0.1886159 0.02763424 0.29696777 0.08891821 -0.12953497 0.017841903 -0.24813272 0.22700918 -0.18489008 -0.012558927 -0.024105338 0.057664175 0.08757318 0.015992614 -0.08956509 0.122020274 -0.43804547
Sexual Content 0.051908176 -0.21733217 -0.16249435 -0.059530947 -0.14878517 -0.24252205 -0.022175832 0.18900464 0.056562483 0.12264957 0.4729012 0.2056874 -0.29816502 0.3561394 0.07167367 0.040054113 0.29487994 -0.1661403 -0.17511578 0.15062453 -0.40550965 0.13301851 0.15953511 0.38494864 0.014913789 0.1271956 -0.21379457 0.25198478 -0.28895813 -0.32263857 0.25504887 -0.17551777 -0.10985402 0.078933634 -0.36432898 0.0479752 0.4596128 -0.09290159 0.2107725 -0.41412407 0.22543031 -0.028742814 -0.21326591 -0.16015503 0.29565418 0.057034314 0.29222038 -0.051711183 -0.18829186 0.29457822 -0.10587035 0.12027493 -0.029245796 -0.20482269 0.52520096 0.19118944 -0.05511847 0.4445455 0.047269247 0.013356943 -0.09847465 -0.055595387 0.10112839 -0.21965076 0.05199294 0.07840991 -0.24446508 -0.5575014 -0.44512954 0.023604408 0.04211368 0.41599375 0.11300524 -0.120097466 0.20453762 -0.048821405 0.067550905 -0.03180772 -0.14143378 0.112979755 0.058335345 -0.3520023 -0.14925265 0.29898372 -0.33926654 0.09318328 0.36330047 -0.029762128 0.1463682 0.15040736 -0.07364459 -0.321424 -0.113872446 -0.09818793 0.34541926 -0.27524003 0.18326476 -0.07783269 0.13029952 -0.061646417 -0.14432128 0.18369688 -0.30871606 0.15943645 -0.022926016 -0.21206479 0.23224911 0.10231332 0.06508482 -0.13646507 -0.37174654 -0.35160467 0.274919 0.12114257 -0.094154574 0.22769341 0.28236356 -0.10010895 0.07283005 -0.18657885 -0.1758881 -0.00026732445 -0.3405431 0.024600232 -0.042474806 0.22025281 -0.17837952 -0.069335245 -0.013615483 0.022365527 0.29884252 0.02245628 0.081121325 -0.47663066 -0.021283714 0.049717776 -0.37959164 0.26880103 -0.042428985 0.09406215 0.028751383 -0.07709561 -0.19530548 -0.35068804 0.35021368 0.06644743 0.023424884 0.015859455 -0.21824276 -0.18140215
Racing 0.45367363 0.25947323 -0.05735701 -0.34365654 0.08976408 0.19592392 -0.10060001 0.303055 -0.037606917 -0.1584833 -0.15930392 0.19306801 0.14710335 -0.04328849 0.06393591 0.020261347 -0.21877949 0.33202288 -0.15672095 -0.080017745 -0.14191508 -0.40336272 0.24653575 0.23488772 -0.1305514 0.3758674 -0.29955 -0.06647412 -0.063234985 -0.12484281 -0.3481913 -0.10225882 0.2790065 0.08811199 0.048105262 0.31575382 0.11341265 0.20669056 0.016707808 -0.6064471 0.055043284 -0.054197006 -0.19268566 -0.38799742 0.08201367 -0.1524662 0.27557945 -0.14421146 0.009832676 0.04726613 -0.027436811 0.47513554 0.17543426 -0.2853718 0.48888057 0.16204312 -0.36159623 0.25320873 0.3126106 -0.13062114 -0.024683762 -0.19721045 -0.1937317 0.42322347 0.22426797 0.31630832 0.24981816 -0.37724748 -0.22264071 0.172403 0.07284017 0.25546786 0.24763757 0.05925604 0.21240671 0.078975156 -0.17275625 -0.23581071 0.13996202 0.16088726 0.01635426 -0.2317446 -0.21655336 0.010955558 -0.09599724 -0.08687424 0.55064386 0.27046093 0.27145374 -0.17509048 0.24433905 -0.5406674 0.32635966 -0.034473702 0.105205916 -0.011977318 -0.18147814 -0.025597375 -0.36258668 0.41267395 -0.2467087 0.28860283 0.26497722 0.040808737 -0.25281748 -0.20152242 -0.20344771 0.060459074 -0.10861062 0.0138869425 -0.20496036 -0.37467682 -0.08911154 0.087702304 0.23706484 0.030470612 0.032455213 0.23054047 -0.14269356 0.3048692 0.18842825 -0.03974411 0.29126832 0.21102908 0.0843597 0.18586528 -0.14496295 -0.18288542 -0.077628076 0.24519591 -0.2556121 0.04315353 -0.12451298 -0.21330552 -0.030980894 0.024004951 -0.33960977 0.27055907 0.029223556 -0.20814468 0.40310657 0.074724585 -0.08139436 -0.13086528 -0.09547283 0.100943014 0.009288359 0.25281107 0.10874874 -0.41930032
Psychological Horror -0.2860177 -0.046293896 0.15512718 -0.22426988 0.115036845 0.043450423 0.082555234 0.09443293 0.14927304 -0.08569719 -0.03744529 0.29841205 -0.07354542 0.64749223 0.05496013 0.08396312 0.047691207 0.14899626 -0.33927327 0.34929863 -0.27665013 -0.19478317 0.124402314 0.13470261 0.0783265 -0.117131695 -0.03789743 0.13644642 -0.20147127 -0.045315087 0.049615033 -0.17725918 0.05886192 0.051504645 -0.115891285 0.096175544 0.45762154 0.0011664105 -0.05465072 -0.21036004 -0.0024689652 0.16259135 0.08810434 -0.22009067 0.52899605 0.006809572 0.08998364 0.09674922 0.16502737 0.20766097 -0.1680024 0.28504717 -0.064600535 -0.011877226 0.26623094 0.11836333 0.26087648 0.4599519 0.12163472 0.0074493466 0.20237221 -0.04728367 0.17648195 0.16154076 0.33767024 0.22878693 -0.18381909 -0.21435766 -0.20882663 0.02673199 -0.1378946 0.12824947 -0.08717408 0.075382225 0.034797728 -0.07976345 0.26727107 -0.27768674 0.04095822 0.078642085 0.3353268 -0.1977254 -0.2737816 0.081846096 -0.27891213 0.06989926 0.30562449 0.12965967 0.07689143 -0.10136547 0.17416823 -0.27065453 -0.06649098 0.0010863892 0.28712922 -0.12268026 -0.018876236 -0.28993207 -0.10881065 -0.022828849 -0.20001686 0.2689009 -0.0070346408 -0.019697523 0.25963005 0.029109549 0.0010133852 0.33064115 -0.3371799 -0.1626409 -0.09813632 -0.34620115 0.13227378 -0.026984684 -0.06452022 -0.11266111 0.38734987 -0.1175425 -0.17842574 -0.24415489 0.009475234 -0.05928584 -0.24453652 -0.44719216 -0.16304629 0.26297492 -0.090808794 0.12524898 -0.13052343 0.2393798 0.045403257 -0.07064469 -0.058529705 -0.5635336 -0.10506713 0.24896951 -0.43020535 0.19401751 0.22531708 0.016875431 0.43436584 -0.11825367 -0.110289425 -0.07339009 0.4734576 0.29934242 -0.04113135 -0.2677908 -0.20471598 -0.1556584
Third Person 0.09200646 -0.041345764 0.042352844 -0.19721693 0.005117301 -0.24489881 0.016910423 0.21194385 0.26325947 0.05929656 -0.09356428 -0.060380034 0.13615373 0.3585449 -0.14740203 0.3994254 -0.08849883 0.21749467 -0.13360783 0.32073185 -0.24122058 0.051376544 0.16615696 0.1010482 -0.15025294 0.2030427 0.07856086 0.043208502 -0.33362183 0.13552026 0.098017685 -0.4769563 -0.05735997 -0.06373411 -0.017585628 0.45619908 0.11456634 0.0828409 -0.051872257 -0.29162812 -0.08515907 0.0857518 0.030011684 -0.17395405 0.30822682 0.20487766 0.23462133 -0.08474391 -0.07087551 -0.035867427 0.23666301 -0.26031867 0.12799807 -0.124800645 -0.12818642 0.28576404 -0.2586732 -0.04425657 0.09410083 -0.25675145 0.1081235 -0.32178417 -0.06054225 0.41496664 0.2277203 0.30207124 0.37588432 -0.20396502 -0.24790268 -0.015125186 0.15024893 0.041280076 0.009789719 0.16398108 0.112736315 -0.0074329143 -0.29567316 0.13252532 0.09984193 -0.058388382 0.1339169 -0.05834803 -0.16846476 -0.13350764 0.13062187 -0.18363327 0.2687608 -0.07852692 -0.13133092 0.15673265 -0.17821614 0.14146596 0.0144832125 0.11715683 0.3174073 0.061332937 0.02561795 -0.075891525 0.044954322 0.025630694 0.006003838 0.35392025 -0.070197 -0.058499027 0.07807058 0.20291047 0.20326237 0.010490016 0.22086665 0.18550245 -0.3362769 -0.12424513 0.21379425 0.13865308 -0.14523436 0.2604942 0.001282166 -0.05950824 0.16079655 -0.06467978 0.047622215 0.18045576 0.2022288 0.031771094 -0.31372482 0.09802267 0.4549435 -0.2399706 0.15088272 0.0022059479 -0.05859979 0.14532405 0.007746005 -0.2111798 -0.03095039 0.2557129 -0.49881947 -0.4831077 0.18526778 -0.0148681095 0.21112406 -0.2606382 0.28695607 -0.017159326 0.08591112 0.3054546 0.0006490954 0.053643495 -0.18551993 -0.34345964
Replay Value 0.18609558 -0.013262463 -0.02528505 -0.018779244 0.17522335 0.075433575 0.109678976 0.24364057 -0.19548516 0.19921362 0.2127351 -0.092829876 -0.04257037 0.47980857 -0.10722915 -0.12704585 0.012894329 0.15877523 0.19438069 -0.12598445 0.13285714 -0.154625 0.045533467 0.1416348 0.4957371 0.21015763 -0.11189391 -0.3504707 0.01245701 -0.025770785 0.013225009 -0.12668917 -0.1233384 0.025366781 -0.21041566 0.10317924 0.10477856 0.26788956 0.18348174 -0.45248166 0.07722514 -0.16182067 -0.12940662 0.13808182 0.06552154 0.29112846 -0.20858873 -0.10791077 0.20284072 -0.10846681 -0.0030066199 0.27710745 -0.14235578 0.03851465 0.05597455 0.29832792 -0.3385709 0.12762232 -0.23963305 0.07022094 -0.10208338 -0.076818734 0.022240838 0.13275494 0.039431788 -0.014830591 -0.07338556 -0.11896314 -0.028905775 -0.30045363 0.20237374 0.011756016 0.09143754 -0.07646053 0.22787733 0.15002333 0.07710135 -0.011079312 -0.1702374 0.04406082 0.13389368 -0.124404624 0.13032784 0.1794234 0.042540375 -0.31600094 0.16622502 -0.17969555 0.16033213 -0.036250122 -0.043140482 0.08533844 -0.015961776 -0.02604361 -0.029492777 0.28046215 0.37689543 -0.027429385 0.09569693 0.31976736 0.06306404 0.038848434 0.17877537 -0.09107786 0.03267352 0.06344749 0.20265794 0.07710622 -0.07021122 -0.14139847 0.052686606 -0.21754576 0.039313324 0.021227183 -0.2877813 0.04094322 0.1362077 0.1605602 -0.2788905 0.07749035 0.12919866 -0.06585653 0.060512584 0.09754669 -0.24633779 -0.07519415 0.29383975 -0.09088655 0.13649425 0.45678437 -0.049625702 0.08604233 -0.04808002 0.051511746 0.14243306 0.13200475 -0.080557436 -0.24014167 0.045578163 0.027366364 0.20164098 -0.03358783 0.012828099 -0.036551517 0.31121337 -0.017763041 0.036595985 0.106455125 0.08910342 -0.1665453
Space -0.10000034 0.12207148 -0.08841269 0.14364184 0.24864183 0.14677104 0.24709067 0.17097545 -0.0008885351 0.08661938 -0.075337045 0.048847012 0.024411883 0.33620825 0.059292305 -0.2691281 0.009291844 0.16480847 0.22072503 -0.16761217 0.16521333 0.100841954 0.24319446 0.4631314 0.09452859 0.13612513 -0.56118536 -0.3619574 -0.11608605 0.19984172 -0.30716825 0.20819098 0.14876254 -0.075495064 0.0151187675 0.3224507 0.07071341 0.058516383 -0.078777015 -0.46819502 -0.20173559 -0.1675474 -0.14873825 0.24124037 0.08206847 0.116736665 -0.04941411 0.06186012 0.15366907 0.3709666 -0.052347478 0.2216332 -0.12616105 -0.10837963 0.027172767 -0.0062781433 0.15085778 0.1534049 0.1589814 -0.015225535 0.0023689573 0.10034565 0.022090673 0.11863258 -0.09725099 0.19266047 0.10434878 0.06717845 -0.27303907 -0.024583306 -0.09896097 0.12092741 -0.030010661 -0.19370757 0.3037705 0.020482289 -0.22339068 0.32152754 -0.07953006 -0.03900326 0.0043619815 0.08389678 -0.024079593 0.33897126 0.09916393 0.15247497 0.0887666 -0.21111763 0.24301374 -0.059550025 0.4045568 -0.20648701 0.15020846 0.072725296 0.335631 0.69237494 0.2357326 0.009352279 -0.11938726 0.065056935 -0.032109097 0.10210337 0.14520209 0.13131414 -0.18550864 0.0048297443 0.30333272 -0.06812998 -0.1498952 -0.14772928 -0.11232088 0.21352127 0.038912926 0.09606992 -0.0649314 -0.09959144 -0.095653996 0.38176563 -0.4809927 -0.06236483 0.361087 -0.005302219 0.14393866 -0.021737093 0.09451552 -0.17679912 0.08053319 -0.36510023 -0.18342672 0.3720979 -0.280929 0.10892998 -0.007855462 -0.20893341 0.29154578 0.23431541 -0.13074422 0.21143346 0.17455247 -0.21366668 0.11079608 -0.07157276 0.20422627 0.26760536 0.27125525 0.27819458 -0.19444016 -0.036375467 0.32647747 -0.076610625
Relaxing 0.28456452 -0.007747617 -0.12891027 0.040483903 -0.11931307 0.042831726 -0.21239254 -0.033625975 -0.34141472 -0.15218045 0.07600345 0.08685808 0.08370545 0.39962935 -0.2976804 0.02328265 -0.13664304 0.69929403 -0.08188343 -0.20125681 -0.06546091 -0.10157581 0.16849393 0.08657109 -0.005854095 -0.049520563 0.12316323 -0.12503527 -0.05756897 0.004728889 -0.027633568 -0.11847698 0.029897176 -0.1834992 -0.16795301 0.09215134 0.25777218 0.2501379 0.086073436 -0.4027804 0.0036299387 -0.2665373 -0.19755451 0.3945965 0.21197934 -0.07772015 -0.06397132 -0.14396413 0.38254616 0.07654428 -0.41107836 0.46661752 -0.015228181 0.08887973 0.29169434 -0.092283614 0.14151251 -0.019122308 0.09626577 0.12275496 -0.073102936 -0.27008405 -0.046130437 0.022037918 0.1006322 -0.06533363 0.09115519 -0.22004302 -0.25871265 -0.067230195 0.1650149 0.27348897 0.04192142 -0.04949448 0.11533354 -0.09484516 -0.07623603 -0.39518952 -0.13784003 -0.17977506 0.2611959 -0.3125641 -0.21641386 0.06882729 -0.05728497 -0.12143488 0.08852014 0.054951034 0.5526845 -0.08267175 0.3549304 -0.21939075 -0.14820233 0.14686465 -0.098188445 0.35268006 -0.12276567 -0.44308066 0.088551745 0.29348704 0.1418544 -0.10472181 0.33579567 0.2160795 -0.06848538 -0.166034 -0.10882081 0.18018818 -0.5457281 0.05476675 -0.18897115 -0.15141971 0.071105465 -0.32598343 -0.22471708 -0.17017715 0.16812149 0.058672145 -0.26738065 -0.14056267 0.3735017 0.04392323 0.35114625 0.28907582 0.041777268 0.37255862 -0.062011804 0.14418548 -0.32720533 0.2511828 -0.3037008 0.05556695 -0.211359 -0.39277783 0.07170376 0.0036537398 0.0060582426 0.00960667 0.12721449 -0.06448637 0.5505467 -0.21532398 0.038410548 0.025578199 0.07141395 0.14008927 -0.12443392 -0.009191897 0.16436912 -0.17033982
Mystery -0.21438812 -0.22949752 0.109108694 -0.1999881 -0.30043328 0.0522449 0.11913594 0.09289651 0.15655482 0.25216365 0.26061302 0.046880547 0.15695433 0.5824138 0.054687586 0.029650243 0.025148135 0.20602146 -0.43636814 0.33999515 -0.08898884 -0.32922596 0.13325974 0.08526149 -0.006859086 -0.2766442 -0.023309726 0.030745024 -0.12575962 -0.15728164 -0.043847416 0.015455213 -0.19445035 -0.017498488 0.105408676 -0.0002574692 0.6979221 -0.31192207 -0.13945131 0.064442806 0.15268216 0.07260337 0.080252685 -0.37197194 0.58277637 -0.008376047 0.14979292 -0.04320661 0.29402438 0.041692123 -0.068488955 0.276714 -0.08690994 0.19524139 0.11799126 0.059549596 0.071730465 0.2434074 0.061690614 -0.14983621 0.15533417 -0.19972667 0.22269623 0.15063444 0.08329482 0.020562936 -0.19801037 -0.52512556 -0.36115158 -0.11955411 -0.236986 0.15873967 -0.17966266 -0.068223394 -0.19562918 -0.16609345 0.09930211 -0.16245504 0.20152946 0.06482035 0.311835 -0.4394918 0.06761245 0.31627384 -0.25780788 0.06510309 0.26652637 0.32453617 0.19429997 -0.32938606 0.1379998 -0.29760054 0.07706086 0.045633115 0.36944842 -0.0611702 -0.19621402 -0.12417091 0.115940616 -0.07764024 0.033217087 0.394952 0.28247425 -0.08638254 0.209596 -0.2635028 0.06678295 0.4251487 -0.5241227 0.0703571 -0.2649591 -0.12768261 0.3676015 -0.04182809 -0.413279 -0.15698981 0.030959485 0.027091736 0.026419424 -0.30066296 0.26542953 -0.045483433 -0.19562823 -0.0354925 -0.13891819 0.16263315 0.24576207 0.22163826 -0.10129126 0.03274033 -0.0870799 0.42941788 -0.14253722 -0.45838395 0.07910437 0.3277793 -0.19798608 -0.086718686 0.0999868 -0.20882462 0.3922113 -0.14880745 0.010092046 -0.18714471 0.6080485 0.049614716 -0.016993115 -0.2530659 -0.19247441 -0.5193474
